{"learner":{"attributes":{"best_iteration":"448","best_score":"0.6073008679159999"},"feature_names":[],"feature_types":[],"gradient_booster":{"model":{"cats":{"enc":[],"feature_segments":[],"sorted_idx":[]},"gbtree_model_param":{"num_parallel_tree":"1","num_trees":"649"},"iteration_indptr":[0,1,2,3,4,5,6,7,8,9,10,11,12,13,14,15,16,17,18,19,20,21,22,23,24,25,26,27,28,29,30,31,32,33,34,35,36,37,38,39,40,41,42,43,44,45,46,47,48,49,50,51,52,53,54,55,56,57,58,59,60,61,62,63,64,65,66,67,68,69,70,71,72,73,74,75,76,77,78,79,80,81,82,83,84,85,86,87,88,89,90,91,92,93,94,95,96,97,98,99,100,101,102,103,104,105,106,107,108,109,110,111,112,113,114,115,116,117,118,119,120,121,122,123,124,125,126,127,128,129,130,131,132,133,134,135,136,137,138,139,140,141,142,143,144,145,146,147,148,149,150,151,152,153,154,155,156,157,158,159,160,161,162,163,164,165,166,167,168,169,170,171,172,173,174,175,176,177,178,179,180,181,182,183,184,185,186,187,188,189,190,191,192,193,194,195,196,197,198,199,200,201,202,203,204,205,206,207,208,209,210,211,212,213,214,215,216,217,218,219,220,221,222,223,224,225,226,227,228,229,230,231,232,233,234,235,236,237,238,239,240,241,242,243,244,245,246,247,248,249,250,251,252,253,254,255,256,257,258,259,260,261,262,263,264,265,266,267,268,269,270,271,272,273,274,275,276,277,278,279,280,281,282,283,284,285,286,287,288,289,290,291,292,293,294,295,296,297,298,299,300,301,302,303,304,305,306,307,308,309,310,311,312,313,314,315,316,317,318,319,320,321,322,323,324,325,326,327,328,329,330,331,332,333,334,335,336,337,338,339,340,341,342,343,344,345,346,347,348,349,350,351,352,353,354,355,356,357,358,359,360,361,362,363,364,365,366,367,368,369,370,371,372,373,374,375,376,377,378,379,380,381,382,383,384,385,386,387,388,389,390,391,392,393,394,395,396,397,398,399,400,401,402,403,404,405,406,407,408,409,410,411,412,413,414,415,416,417,418,419,420,421,422,423,424,425,426,427,428,429,430,431,432,433,434,435,436,437,438,439,440,441,442,443,444,445,446,447,448,449,450,451,452,453,454,455,456,457,458,459,460,461,462,463,464,465,466,467,468,469,470,471,472,473,474,475,476,477,478,479,480,481,482,483,484,485,486,487,488,489,490,491,492,493,494,495,496,497,498,499,500,501,502,503,504,505,506,507,508,509,510,511,512,513,514,515,516,517,518,519,520,521,522,523,524,525,526,527,528,529,530,531,532,533,534,535,536,537,538,539,540,541,542,543,544,545,546,547,548,549,550,551,552,553,554,555,556,557,558,559,560,561,562,563,564,565,566,567,568,569,570,571,572,573,574,575,576,577,578,579,580,581,582,583,584,585,586,587,588,589,590,591,592,593,594,595,596,597,598,599,600,601,602,603,604,605,606,607,608,609,610,611,612,613,614,615,616,617,618,619,620,621,622,623,624,625,626,627,628,629,630,631,632,633,634,635,636,637,638,639,640,641,642,643,644,645,646,647,648,649],"tree_info":[0,0,0,0,0,0,0,0,0,0,0,0,0,0,0,0,0,0,0,0,0,0,0,0,0,0,0,0,0,0,0,0,0,0,0,0,0,0,0,0,0,0,0,0,0,0,0,0,0,0,0,0,0,0,0,0,0,0,0,0,0,0,0,0,0,0,0,0,0,0,0,0,0,0,0,0,0,0,0,0,0,0,0,0,0,0,0,0,0,0,0,0,0,0,0,0,0,0,0,0,0,0,0,0,0,0,0,0,0,0,0,0,0,0,0,0,0,0,0,0,0,0,0,0,0,0,0,0,0,0,0,0,0,0,0,0,0,0,0,0,0,0,0,0,0,0,0,0,0,0,0,0,0,0,0,0,0,0,0,0,0,0,0,0,0,0,0,0,0,0,0,0,0,0,0,0,0,0,0,0,0,0,0,0,0,0,0,0,0,0,0,0,0,0,0,0,0,0,0,0,0,0,0,0,0,0,0,0,0,0,0,0,0,0,0,0,0,0,0,0,0,0,0,0,0,0,0,0,0,0,0,0,0,0,0,0,0,0,0,0,0,0,0,0,0,0,0,0,0,0,0,0,0,0,0,0,0,0,0,0,0,0,0,0,0,0,0,0,0,0,0,0,0,0,0,0,0,0,0,0,0,0,0,0,0,0,0,0,0,0,0,0,0,0,0,0,0,0,0,0,0,0,0,0,0,0,0,0,0,0,0,0,0,0,0,0,0,0,0,0,0,0,0,0,0,0,0,0,0,0,0,0,0,0,0,0,0,0,0,0,0,0,0,0,0,0,0,0,0,0,0,0,0,0,0,0,0,0,0,0,0,0,0,0,0,0,0,0,0,0,0,0,0,0,0,0,0,0,0,0,0,0,0,0,0,0,0,0,0,0,0,0,0,0,0,0,0,0,0,0,0,0,0,0,0,0,0,0,0,0,0,0,0,0,0,0,0,0,0,0,0,0,0,0,0,0,0,0,0,0,0,0,0,0,0,0,0,0,0,0,0,0,0,0,0,0,0,0,0,0,0,0,0,0,0,0,0,0,0,0,0,0,0,0,0,0,0,0,0,0,0,0,0,0,0,0,0,0,0,0,0,0,0,0,0,0,0,0,0,0,0,0,0,0,0,0,0,0,0,0,0,0,0,0,0,0,0,0,0,0,0,0,0,0,0,0,0,0,0,0,0,0,0,0,0,0,0,0,0,0,0,0,0,0,0,0,0,0,0,0,0,0,0,0,0,0,0,0,0,0,0,0,0,0,0,0,0,0,0,0,0,0,0,0,0,0,0,0,0,0,0,0,0,0,0,0,0,0,0,0,0,0,0,0,0,0,0,0,0,0,0,0,0,0,0,0,0,0,0,0,0,0,0,0,0,0,0,0,0,0,0,0,0,0,0,0,0,0,0,0,0,0,0,0,0,0,0,0,0,0,0,0,0,0,0,0,0,0,0,0,0,0,0,0,0,0,0,0,0],"trees":[{"base_weights":[2.6560525E-5,8.2003206E-1,-1.21621646E-1,3.6719874E-1,1.0450234E0,-4.1319653E-1,2.602498E-2,2.6125032E-1,7.4979705E-1,9.364174E-1,1.2747067E0,4.0057138E-1,-4.2201418E-1,1.0154619E0,-2.3773094E-3,2.4547979E-1,1.2773348E0,9.8238E-1,3.7978232E-2,6.060261E-1,1.0129913E0,1.4955492E0,9.3995494E-1,2.6142305E-1,8.4070647E-1,-4.5391443E-1,-2.3522274E-1,9.592384E-1,1.3665029E0,1.3263973E0,-1.8691994E-2,4.067646E-1,1.5952104E-1,2.4372334E-2,1.4530684E0,1.1672473E0,8.127756E-1,5.257782E-1,-1.8831742E-1,1.344988E-1,6.4590853E-1,9.942506E-1,1.21129714E-1,1.2967528E0,1.7512941E0,1.3108617E0,6.456959E-1,5.656009E-1,1.5934722E-1,9.9584186E-1,2.442869E-4,-5.600717E-1,-4.301137E-1,8.3648756E-2,-2.563801E-1,1.0237335E0,8.248998E-1,1.1697984E0,1.6089721E0,1.2010925E0,1.5288213E0,-7.09709E-2,2.5396225E-1,-1.4026828E-2,2.2444097E-2,-1.7877627E-2,1.204429E-2,3.979156E-2,8.7756276E-2,6.365549E-2,4.401898E-2,1.0393983E-2,4.577034E-2,4.69214E-2,-1.9915604E-3,-1.35112E-2,1.8518005E-2,-6.2135737E-3,3.270143E-2,4.445679E-2,2.490038E-2,4.8739817E-2,8.653115E-2,7.253914E-2,4.8932035E-2,6.116576E-2,9.210434E-2,3.6526922E-2,7.239582E-2,5.8946498E-2,1.7951867E-2,-1.1282248E-2,4.117257E-2,-2.7696165E-4,1.6711464E-2,3.802518E-2,7.9515636E-2,-2.8382901E-2,-1.4971315E-2,-2.1580998E-2,2.1087606E-2,-1.42230345E-2,1.7843476E-2,-1.7855186E-2,-1.1667378E-2,5.1989943E-2,1.8451948E-2,3.864915E-2,4.9891427E-2,8.1881344E-2,3.8509805E-2,8.933982E-2,6.41082E-2,6.350546E-2,3.0146426E-2,7.814335E-2,3.3144902E-2,4.4561252E-2,-4.2358483E-3,7.2387E-4,1.5715448E-2],"categories":[],"categories_nodes":[],"categories_segments":[],"categories_sizes":[],"default_left":[0,0,0,0,0,0,0,0,0,0,0,0,0,0,0,0,0,0,0,0,0,0,0,0,0,0,0,0,0,0,0,0,0,0,0,0,0,0,0,0,0,0,0,0,0,0,0,0,0,0,0,0,1,0,0,0,0,0,0,0,0,0,0,0,0,0,0,0,0,0,0,0,0,0,0,0,0,0,0,0,0,0,0,0,0,0,0,0,0,0,0,0,0,0,0,0,0,0,0,0,0,0,0,0,0,0,0,0,0,0,0,0,0,0,0,0,0,0,0,0,0],"id":0,"left_children":[1,3,5,7,9,11,13,15,17,19,21,23,25,27,29,31,33,35,37,39,41,43,45,47,49,51,53,55,57,59,61,63,65,-1,67,69,71,73,75,77,79,81,-1,83,85,87,89,91,93,95,-1,97,99,101,103,105,107,109,111,113,115,117,119,-1,-1,-1,-1,-1,-1,-1,-1,-1,-1,-1,-1,-1,-1,-1,-1,-1,-1,-1,-1,-1,-1,-1,-1,-1,-1,-1,-1,-1,-1,-1,-1,-1,-1,-1,-1,-1,-1,-1,-1,-1,-1,-1,-1,-1,-1,-1,-1,-1,-1,-1,-1,-1,-1,-1,-1,-1,-1],"loss_changes":[5.425819E3,7.1553076E2,2.0391271E3,9.44126E1,1.1589453E2,1.144209E2,8.836708E2,2.90001E1,8.367114E1,8.010791E1,1.0979321E2,1.0264761E1,9.375635E1,1.6007324E1,6.627004E2,2.4926308E1,3.1396675E0,1.0999023E1,1.3959355E1,1.12499695E1,6.598071E1,4.3719116E1,6.470245E1,3.9935331E0,5.2686977E0,3.375049E1,1.5537277E1,5.7374268E0,3.7829285E0,7.5683594E0,4.3046933E2,1.8248894E1,4.9627495E1,0E0,3.0047379E0,4.3464813E0,1.2351654E1,9.3859005E0,4.058606E0,6.571416E0,1.9542831E1,3.4937256E1,0E0,2.3707458E1,1.6574585E1,1.9996735E1,5.1068344E1,6.8480215E0,2.881613E0,3.5889893E0,0E0,4.6954956E0,1.4288452E1,1.4569755E1,4.920685E0,4.9710693E0,1.4871826E0,1.168309E1,6.459503E-1,8.881287E0,3.0353088E0,3.3524057E2,7.02168E1,0E0,0E0,0E0,0E0,0E0,0E0,0E0,0E0,0E0,0E0,0E0,0E0,0E0,0E0,0E0,0E0,0E0,0E0,0E0,0E0,0E0,0E0,0E0,0E0,0E0,0E0,0E0,0E0,0E0,0E0,0E0,0E0,0E0,0E0,0E0,0E0,0E0,0E0,0E0,0E0,0E0,0E0,0E0,0E0,0E0,0E0,0E0,0E0,0E0,0E0,0E0,0E0,0E0,0E0,0E0,0E0,0E0,0E0],"parents":[2147483647,0,0,1,1,2,2,3,3,4,4,5,5,6,6,7,7,8,8,9,9,10,10,11,11,12,12,13,13,14,14,15,15,16,16,17,17,18,18,19,19,20,20,21,21,22,22,23,23,24,24,25,25,26,26,27,27,28,28,29,29,30,30,31,31,32,32,34,34,35,35,36,36,37,37,38,38,39,39,40,40,41,41,43,43,44,44,45,45,46,46,47,47,48,48,49,49,51,51,52,52,53,53,54,54,55,55,56,56,57,57,58,58,59,59,60,60,61,61,62,62],"right_children":[2,4,6,8,10,12,14,16,18,20,22,24,26,28,30,32,34,36,38,40,42,44,46,48,50,52,54,56,58,60,62,64,66,-1,68,70,72,74,76,78,80,82,-1,84,86,88,90,92,94,96,-1,98,100,102,104,106,108,110,112,114,116,118,120,-1,-1,-1,-1,-1,-1,-1,-1,-1,-1,-1,-1,-1,-1,-1,-1,-1,-1,-1,-1,-1,-1,-1,-1,-1,-1,-1,-1,-1,-1,-1,-1,-1,-1,-1,-1,-1,-1,-1,-1,-1,-1,-1,-1,-1,-1,-1,-1,-1,-1,-1,-1,-1,-1,-1,-1,-1,-1],"split_conditions":[6.00001E0,2.00001E0,2.00001E0,4E0,1.79E2,2.00001E0,2.00001E0,2E0,1.854E2,2.00001E0,1.852E2,1.829E2,1.856E2,1.86E2,2.00001E0,1.692E2,5.69E1,1.834E2,8.64E1,5.53E1,2E0,6.417107E-2,4E0,1.709E2,1.938E2,2.00001E0,4E0,1.792E2,1.046E2,1.809E2,1.856E2,1E0,2E0,2.4372334E-2,5.9798732E-2,6.1954733E-2,8.52E1,1.865E2,1.865E2,1.629E2,1.694E2,4E0,1.21129714E-1,9.65E1,1.81E2,2.00001E0,8.83E1,1.635E2,7.85E1,1.041E2,2.442869E-4,4E0,4E0,8.52E1,2.00001E0,9.14E1,1.834E2,9.59E1,1.119E2,8.73E1,1.968E2,2.00001E0,2.00001E0,-1.4026828E-2,2.2444097E-2,-1.7877627E-2,1.204429E-2,3.979156E-2,8.7756276E-2,6.365549E-2,4.401898E-2,1.0393983E-2,4.577034E-2,4.69214E-2,-1.9915604E-3,-1.35112E-2,1.8518005E-2,-6.2135737E-3,3.270143E-2,4.445679E-2,2.490038E-2,4.8739817E-2,8.653115E-2,7.253914E-2,4.8932035E-2,6.116576E-2,9.210434E-2,3.6526922E-2,7.239582E-2,5.8946498E-2,1.7951867E-2,-1.1282248E-2,4.117257E-2,-2.7696165E-4,1.6711464E-2,3.802518E-2,7.9515636E-2,-2.8382901E-2,-1.4971315E-2,-2.1580998E-2,2.1087606E-2,-1.42230345E-2,1.7843476E-2,-1.7855186E-2,-1.1667378E-2,5.1989943E-2,1.8451948E-2,3.864915E-2,4.9891427E-2,8.1881344E-2,3.8509805E-2,8.933982E-2,6.41082E-2,6.350546E-2,3.0146426E-2,7.814335E-2,3.3144902E-2,4.4561252E-2,-4.2358483E-3,7.2387E-4,1.5715448E-2],"split_indices":[49,2,2,47,44,26,37,50,44,4,44,44,44,44,40,44,45,44,45,45,50,52,47,44,44,19,47,44,45,44,44,49,48,0,52,52,45,44,44,44,44,47,0,45,44,4,45,44,45,45,0,47,47,45,19,45,44,45,45,45,44,39,4,0,0,0,0,0,0,0,0,0,0,0,0,0,0,0,0,0,0,0,0,0,0,0,0,0,0,0,0,0,0,0,0,0,0,0,0,0,0,0,0,0,0,0,0,0,0,0,0,0,0,0,0,0,0,0,0,0,0],"split_type":[0,0,0,0,0,0,0,0,0,0,0,0,0,0,0,0,0,0,0,0,0,0,0,0,0,0,0,0,0,0,0,0,0,0,0,0,0,0,0,0,0,0,0,0,0,0,0,0,0,0,0,0,0,0,0,0,0,0,0,0,0,0,0,0,0,0,0,0,0,0,0,0,0,0,0,0,0,0,0,0,0,0,0,0,0,0,0,0,0,0,0,0,0,0,0,0,0,0,0,0,0,0,0,0,0,0,0,0,0,0,0,0,0,0,0,0,0,0,0,0,0],"sum_hessian":[5.4390973E4,7.025795E3,4.7365176E4,2.332956E3,4.692839E3,1.5921449E4,3.1443727E4,1.8283387E3,5.0461737E2,3.1896753E3,1.5031637E3,1.7019275E2,1.5751257E4,8.7645154E2,3.0567275E4,1.8016177E3,2.6721083E1,3.8005603E2,1.24561356E2,6.01841E2,2.5878342E3,9.0358374E2,5.9958E2,1.3052222E2,3.9670532E1,1.3452421E4,2.2988354E3,7.586732E2,1.1777831E2,3.697787E2,3.0197496E4,6.250678E2,1.1765498E3,5.5497637E0,2.117132E1,1.7903127E2,2.0102477E2,3.905389E1,8.550747E1,4.7275764E1,5.5456525E2,2.5555632E3,3.2270847E1,5.1181152E2,3.917722E2,2.6371655E2,3.3586346E2,3.1654207E1,9.886801E1,3.329858E1,6.3719506E0,2.459573E3,1.0992849E4,1.4285503E2,2.1559802E3,5.081117E2,2.5056154E2,6.824154E1,4.9536777E1,2.3267897E2,1.3709972E2,2.5339604E4,4.857893E3,3.5765144E1,5.893027E2,1.5950432E2,1.01704553E3,7.810778E0,1.3360541E1,1.282612E2,5.0770058E1,2.959874E1,1.7142603E2,2.2199055E1,1.6854837E1,7.502458E1,1.0482886E1,3.20653E1,1.5210463E1,2.0780782E2,3.4675745E2,2.4920493E3,6.351396E1,3.4244095E2,1.6937056E2,5.960857E1,3.3216364E2,5.1592247E1,2.121243E2,1.16339485E2,2.1952397E2,7.810778E0,2.3843428E1,5.13867E1,4.748131E1,2.5487803E1,7.810778E0,2.3888647E3,7.07081E1,1.09739375E4,1.8910305E1,6.084185E1,8.201317E1,3.9855524E2,1.757425E3,4.9536777E2,1.2743901E1,1.9691383E2,5.3647713E1,3.0009832E1,3.8231705E1,2.9187645E1,2.0349133E1,2.0760226E2,2.507671E1,1.3113885E2,5.960857E0,3.5600705E2,2.4983596E4,9.7799164E2,3.8799014E3],"tree_param":{"num_deleted":"0","num_feature":"55","num_nodes":"121","size_leaf_vector":"1"}},{"base_weights":[7.260335E-4,7.5524217E-1,-1.13383725E-1,3.2978866E-1,9.622798E-1,-3.9955324E-1,3.0273981E-2,2.2276038E-1,5.901812E-1,8.6723864E-1,1.1807482E0,-4.3412462E-1,-1.975368E-1,5.8326846E-1,-6.447906E-3,3.9662495E-1,1.0505456E-1,8.081972E-1,3.2762855E-1,5.33105E-1,9.2487764E-1,1.4019333E0,8.72675E-1,-4.422299E-1,3.1158715E-1,1.2748593E-1,-2.1893358E-1,1.0037653E0,-2.7442638E-2,1.2233896E0,-2.238152E-2,1.563172E-1,5.188641E-1,-1.6136232E-1,2.2869551E-1,8.4283084E-1,-1.2531944E-1,6.0309434E-1,1.169302E-1,2.6455435E-1,6.180094E-1,9.0903056E-1,2.0910516E0,1.7224782E0,1.1929556E0,1.2083477E0,6.087488E-1,-5.5481684E-1,-4.1737646E-1,2.2853895E-1,1.2861196E0,-2.729242E-1,3.6170328E-1,-3.5074985E-1,-1.8896873E-1,9.4112843E-1,1.2430252E0,-6.5346174E-2,6.06875E-1,1.1427816E0,1.562789E0,1.2854275E0,-3.6478627E-2,1.6637944E-2,-1.2050093E-2,4.3323502E-2,2.2289213E-2,-1.6887687E-2,3.0747368E-3,1.4982832E-2,-1.8861027E-3,3.9550014E-2,7.443046E-2,1.8662885E-2,-3.7568018E-2,2.6806382E-2,7.608902E-2,3.442241E-2,8.6682086E-4,1.8815119E-2,-4.5768623E-3,7.018674E-2,2.6459372E-2,5.264463E-2,4.1183975E-2,1.14111386E-1,5.8639377E-2,4.8693933E-2,9.058397E-2,6.808482E-2,4.3222692E-2,2.4457406E-2,6.289918E-2,5.1550716E-2,1.8819408E-2,-2.5156526E-2,-2.999345E-2,-2.1087805E-2,-1.0899164E-2,2.9321043E-2,5.7002846E-3,3.676771E-2,8.21034E-2,-3.2778278E-2,6.1257575E-3,6.754901E-3,3.5081968E-2,-1.4345291E-2,-3.3978075E-2,-9.83568E-3,1.6412593E-2,6.3845925E-2,4.4394106E-2,4.2956844E-2,6.4243965E-2,3.8910855E-2,-4.052648E-3,5.222952E-2,5.016874E-3,5.3901043E-2,6.597339E-2,9.557436E-2,7.124245E-2,5.8167882E-2,7.721522E-2,4.4798817E-2,-2.514686E-3],"categories":[],"categories_nodes":[],"categories_segments":[],"categories_sizes":[],"default_left":[0,0,0,0,0,0,0,0,0,0,0,0,0,0,0,0,0,0,0,0,0,0,0,0,0,0,0,0,0,0,0,0,0,0,0,0,0,0,0,0,0,0,0,0,0,0,0,0,0,0,0,0,0,0,0,0,0,0,0,0,0,0,0,0,0,0,0,0,0,0,0,0,0,0,0,0,0,0,0,0,0,0,0,0,0,0,0,0,0,0,0,0,0,0,0,0,0,0,0,0,0,0,0,0,0,0,0,0,0,0,0,0,0,0,0,0,0,0,0,0,0,0,0,0,0,0,0],"id":1,"left_children":[1,3,5,7,9,11,13,15,17,19,21,23,25,27,29,31,33,35,37,39,41,43,45,47,49,51,53,55,57,59,61,63,65,67,69,71,73,75,77,79,81,83,85,87,89,91,93,95,97,99,101,103,105,107,109,111,113,115,117,119,121,123,125,-1,-1,-1,-1,-1,-1,-1,-1,-1,-1,-1,-1,-1,-1,-1,-1,-1,-1,-1,-1,-1,-1,-1,-1,-1,-1,-1,-1,-1,-1,-1,-1,-1,-1,-1,-1,-1,-1,-1,-1,-1,-1,-1,-1,-1,-1,-1,-1,-1,-1,-1,-1,-1,-1,-1,-1,-1,-1,-1,-1,-1,-1,-1,-1],"loss_changes":[4.690265E3,6.300559E2,1.9453462E3,6.5196594E1,9.891797E1,1.1036865E2,6.3978284E2,3.3988686E1,3.8785736E1,6.4177734E1,9.801807E1,8.175537E1,1.6112503E1,5.0383777E2,5.789738E2,1.9627533E1,3.2744194E1,1.2134018E1,1.7990295E1,1.11548E1,5.100049E1,5.462317E1,5.342157E1,3.7148438E1,1.1504532E1,1.3555311E1,8.50634E0,1.624292E1,1.9297146E1,8.552612E0,5.3779E2,1.6039148E1,1.0899902E1,1.2416325E1,1.2840561E1,1.0833923E1,4.7062936E0,7.4661674E0,1.0094552E1,4.8488693E0,2.552626E1,3.3831787E1,3.9255981E0,2.0382935E1,2.739447E1,8.95401E0,3.3388138E1,5.316223E0,9.467651E0,5.4892035E0,9.943714E-1,8.179331E0,6.912056E0,8.219387E0,7.1570168E0,1.5403931E1,2.7192993E0,1.0089155E1,9.930197E0,2.1143494E0,6.340027E-1,8.0338745E0,3.7178598E2,0E0,0E0,0E0,0E0,0E0,0E0,0E0,0E0,0E0,0E0,0E0,0E0,0E0,0E0,0E0,0E0,0E0,0E0,0E0,0E0,0E0,0E0,0E0,0E0,0E0,0E0,0E0,0E0,0E0,0E0,0E0,0E0,0E0,0E0,0E0,0E0,0E0,0E0,0E0,0E0,0E0,0E0,0E0,0E0,0E0,0E0,0E0,0E0,0E0,0E0,0E0,0E0,0E0,0E0,0E0,0E0,0E0,0E0,0E0,0E0,0E0,0E0,0E0,0E0],"parents":[2147483647,0,0,1,1,2,2,3,3,4,4,5,5,6,6,7,7,8,8,9,9,10,10,11,11,12,12,13,13,14,14,15,15,16,16,17,17,18,18,19,19,20,20,21,21,22,22,23,23,24,24,25,25,26,26,27,27,28,28,29,29,30,30,31,31,32,32,33,33,34,34,35,35,36,36,37,37,38,38,39,39,40,40,41,41,42,42,43,43,44,44,45,45,46,46,47,47,48,48,49,49,50,50,51,51,52,52,53,53,54,54,55,55,56,56,57,57,58,58,59,59,60,60,61,61,62,62],"right_children":[2,4,6,8,10,12,14,16,18,20,22,24,26,28,30,32,34,36,38,40,42,44,46,48,50,52,54,56,58,60,62,64,66,68,70,72,74,76,78,80,82,84,86,88,90,92,94,96,98,100,102,104,106,108,110,112,114,116,118,120,122,124,126,-1,-1,-1,-1,-1,-1,-1,-1,-1,-1,-1,-1,-1,-1,-1,-1,-1,-1,-1,-1,-1,-1,-1,-1,-1,-1,-1,-1,-1,-1,-1,-1,-1,-1,-1,-1,-1,-1,-1,-1,-1,-1,-1,-1,-1,-1,-1,-1,-1,-1,-1,-1,-1,-1,-1,-1,-1,-1,-1,-1,-1,-1,-1,-1],"split_conditions":[6.00001E0,2.00001E0,2.00001E0,1.792E2,1.797E2,1.856E2,2.00001E0,1.692E2,1.85E2,2.00001E0,1.852E2,7.279666E-2,4E0,6.1062254E-2,2.00001E0,2E0,7.06E1,3.215636E1,4E0,2.180993E1,2E0,2.00001E0,4E0,2.00001E0,1.831E2,8.43E1,2.00001E0,1.833E2,1.064E2,4E0,2.00001E0,1.619E2,1.65E2,1.709E2,2.7491745E1,3.1003262E1,1.836E2,2E0,8.29E1,6.13E1,6.3E1,1.692E2,6.52E1,4E0,9.71E1,2.3894829E1,8.84E1,2.46168E1,9.97E1,1.707E2,2.60384E1,1.862E2,1.862E2,1.961E2,7.279666E-2,2.00001E0,2.4114073E1,1.593E2,3.0700216E1,1.809E2,9.12E1,8.83E1,2.00001E0,1.6637944E-2,-1.2050093E-2,4.3323502E-2,2.2289213E-2,-1.6887687E-2,3.0747368E-3,1.4982832E-2,-1.8861027E-3,3.9550014E-2,7.443046E-2,1.8662885E-2,-3.7568018E-2,2.6806382E-2,7.608902E-2,3.442241E-2,8.6682086E-4,1.8815119E-2,-4.5768623E-3,7.018674E-2,2.6459372E-2,5.264463E-2,4.1183975E-2,1.14111386E-1,5.8639377E-2,4.8693933E-2,9.058397E-2,6.808482E-2,4.3222692E-2,2.4457406E-2,6.289918E-2,5.1550716E-2,1.8819408E-2,-2.5156526E-2,-2.999345E-2,-2.1087805E-2,-1.0899164E-2,2.9321043E-2,5.7002846E-3,3.676771E-2,8.21034E-2,-3.2778278E-2,6.1257575E-3,6.754901E-3,3.5081968E-2,-1.4345291E-2,-3.3978075E-2,-9.83568E-3,1.6412593E-2,6.3845925E-2,4.4394106E-2,4.2956844E-2,6.4243965E-2,3.8910855E-2,-4.052648E-3,5.222952E-2,5.016874E-3,5.3901043E-2,6.597339E-2,9.557436E-2,7.124245E-2,5.8167882E-2,7.721522E-2,4.4798817E-2,-2.514686E-3],"split_indices":[50,2,2,44,44,44,1,44,44,7,44,52,47,52,40,47,45,46,47,46,50,0,47,19,44,45,19,44,45,47,34,44,44,44,46,46,44,50,45,45,45,44,45,47,45,46,45,46,45,44,46,44,44,44,52,24,46,44,46,44,45,45,39,0,0,0,0,0,0,0,0,0,0,0,0,0,0,0,0,0,0,0,0,0,0,0,0,0,0,0,0,0,0,0,0,0,0,0,0,0,0,0,0,0,0,0,0,0,0,0,0,0,0,0,0,0,0,0,0,0,0,0,0,0,0,0,0],"split_type":[0,0,0,0,0,0,0,0,0,0,0,0,0,0,0,0,0,0,0,0,0,0,0,0,0,0,0,0,0,0,0,0,0,0,0,0,0,0,0,0,0,0,0,0,0,0,0,0,0,0,0,0,0,0,0,0,0,0,0,0,0,0,0,0,0,0,0,0,0,0,0,0,0,0,0,0,0,0,0,0,0,0,0,0,0,0,0,0,0,0,0,0,0,0,0,0,0,0,0,0,0,0,0,0,0,0,0,0,0,0,0,0,0,0,0,0,0,0,0,0,0,0,0,0,0,0,0],"sum_hessian":[5.4474117E4,7.155425E3,4.7318695E4,2.3430828E3,4.8123423E3,1.5814353E4,3.1504342E4,1.6618668E3,6.812161E2,3.3569329E3,1.4554093E3,1.3502499E4,2.3118528E3,1.9608619E3,2.954348E4,6.6993243E2,9.919343E2,3.710384E2,3.101777E2,4.9539206E2,2.8615408E3,8.45105E2,6.103043E2,1.3357719E4,1.4478029E2,1.424865E2,2.1693662E3,1.1608978E3,7.999642E2,3.768966E2,2.9166584E4,2.2664801E2,4.4328445E2,3.143277E2,6.776066E2,3.5785892E2,1.31795E1,1.3362059E2,1.7655711E2,1.19988144E2,3.7540393E2,2.8249321E3,3.660847E1,3.3066507E2,5.144399E2,2.6706332E2,3.4324103E2,2.411628E3,1.0946091E4,1.3454877E2,1.0231532E1,5.252546E1,8.996103E1,3.9982373E2,1.7695426E3,9.239471E2,2.369507E2,7.5570416E2,4.4259987E1,3.0809137E2,6.8805244E1,3.100774E2,2.8856506E4,1.5706223E2,6.9585785E1,7.511965E1,3.681648E2,1.7516724E2,1.3916048E2,5.349866E2,1.4262004E2,3.3333044E2,2.4528446E1,7.561402E0,5.6180973E0,1.260182E2,7.602384E0,2.5323853E1,1.5123326E2,9.128462E1,2.8703527E1,3.6623745E1,3.3878018E2,1.0476865E3,1.7772457E3,2.9070766E1,7.537704E0,3.6474995E1,2.9419006E2,3.3778534E2,1.7665456E2,1.7942339E1,2.4912099E2,1.2061396E2,2.2262706E2,1.1287881E3,1.2828398E3,1.070974E4,2.3635135E2,3.1621382E1,1.02927376E2,5.2201695E0,5.011363E0,2.6360388E1,2.6165073E1,5.4816887E1,3.5144142E1,3.363823E2,6.3441418E1,1.7440469E3,2.5495697E1,1.23312706E2,8.006344E2,2.5410475E1,2.1154022E2,1.29262905E1,7.427779E2,2.3173126E1,2.1086859E1,2.3065175E2,7.743961E1,1.585869E1,5.2946556E1,2.144502E2,9.562718E1,4.2035892E2,2.8436146E4],"tree_param":{"num_deleted":"0","num_feature":"55","num_nodes":"127","size_leaf_vector":"1"}},{"base_weights":[-2.5393793E-3,7.1979153E-1,-1.134881E-1,3.3250508E-1,9.0636027E-1,-3.8360113E-1,2.07638E-2,2.2737454E-1,6.028414E-1,8.1575465E-1,1.0909731E0,-3.9290655E-1,4.5928112E-1,8.832103E-1,-4.674866E-3,3.8148132E-1,1.23381324E-1,8.1087863E-1,3.6321947E-1,9.6759987E-1,7.1792114E-1,1.218224E0,7.654106E-1,-4.240965E-1,-2.1222495E-1,3.4071687E-1,8.2416826E-1,8.3523E-1,1.1364532E0,1.2408844E0,-1.781252E-2,1.1393374E-1,5.155057E-1,-1.8265E-1,2.3129784E-1,1.032966E0,7.13827E-1,6.3415706E-1,1.5869617E-1,9.4379425E-1,1.7965366E0,4.935457E-1,8.70548E-1,1.4943082E0,1.0368654E0,1.1108477E0,3.1294042E-1,-4.9985468E-1,-4.0349725E-1,4.3366108E-2,-2.2862433E-1,4.5756134E-1,2.4392353E-2,9.9183047E-1,-2.3813709E-3,8.4594345E-1,1.4212976E-1,1.3314165E0,9.754891E-1,1.1268455E0,1.5757444E0,1.0940564E0,-3.2368187E-2,1.392845E-2,-1.264506E-2,4.4738594E-2,2.1796776E-2,-1.4602931E-2,2.5139495E-3,1.0716974E-2,5.7923097E-2,3.3594817E-2,6.3193165E-2,6.8033496E-3,3.7556577E-2,-2.12065E-2,3.4140818E-2,2.0367641E-2,-5.045621E-3,1.0016948E-1,4.6399914E-2,4.6790358E-2,9.606844E-2,3.7464302E-2,1.6826084E-2,5.7612218E-2,3.471256E-2,5.329101E-2,7.979469E-2,5.8068573E-2,3.7634116E-2,5.0107986E-2,7.836381E-2,3.769695E-2,-2.8231759E-3,-2.5225883E-2,-2.7203008E-3,-2.025154E-2,2.2839678E-2,-3.6955539E-3,5.6843914E-2,-1.5375309E-2,-1.0307404E-2,1.705957E-2,4.4470545E-2,-7.3273815E-3,1.6390443E-2,3.798115E-2,7.801038E-2,7.016172E-2,4.167697E-2,2.2076137E-2,-7.474723E-3,2.6493145E-2,7.0289515E-2,1.6618466E-2,5.3271648E-2,8.1611924E-2,5.1989246E-2,8.2621366E-2,3.7111156E-2,5.2636094E-2,8.048057E-2,-3.9867223E-3,1.0726838E-2],"categories":[],"categories_nodes":[],"categories_segments":[],"categories_sizes":[],"default_left":[0,0,0,0,0,0,0,0,0,0,0,0,0,0,0,0,0,0,0,0,0,0,0,0,0,0,0,0,0,0,0,0,0,0,0,0,0,0,0,0,0,0,0,0,0,0,0,0,1,0,0,0,0,0,0,0,0,0,0,0,0,0,0,0,0,0,0,0,0,0,0,0,0,0,0,0,0,0,0,0,0,0,0,0,0,0,0,0,0,0,0,0,0,0,0,0,0,0,0,0,0,0,0,0,0,0,0,0,0,0,0,0,0,0,0,0,0,0,0,0,0,0,0,0,0],"id":2,"left_children":[1,3,5,7,9,11,13,15,17,19,21,23,25,27,29,31,33,35,37,39,41,43,45,47,49,51,53,55,57,59,61,63,65,67,69,71,73,75,77,79,81,83,85,87,89,91,93,95,97,99,101,103,105,107,-1,109,111,113,115,117,119,121,123,-1,-1,-1,-1,-1,-1,-1,-1,-1,-1,-1,-1,-1,-1,-1,-1,-1,-1,-1,-1,-1,-1,-1,-1,-1,-1,-1,-1,-1,-1,-1,-1,-1,-1,-1,-1,-1,-1,-1,-1,-1,-1,-1,-1,-1,-1,-1,-1,-1,-1,-1,-1,-1,-1,-1,-1,-1,-1,-1,-1,-1,-1],"loss_changes":[4.361002E3,5.2321606E2,1.7105709E3,6.685452E1,8.089136E1,1.2301587E2,6.91333E2,2.7177269E1,3.2576523E1,4.8084717E1,6.56272E1,8.720654E1,7.137478E0,1.0020569E1,5.0089777E2,2.4467392E1,3.3588997E1,6.8528137E0,1.6980274E1,2.3637085E1,6.8089966E1,5.620349E1,7.064218E1,2.041211E1,9.57666E0,4.8352613E0,6.0909233E0,5.5438232E0,3.1271057E0,1.0424927E1,4.9025494E2,1.3934603E1,1.3353706E1,6.7775297E0,1.1566124E1,7.8924103E0,5.2493134E0,7.1004486E0,1.1466148E1,1.9062988E1,1.9337311E0,3.236885E1,5.8272766E1,1.810559E1,2.387268E1,1.118689E1,3.2301964E1,5.8294067E0,1.3893188E1,1.7840094E1,3.7395248E0,4.5057487E0,1.9373101E0,3.397789E0,0E0,4.0215454E0,1.184712E0,2.893959E0,4.3308563E0,8.943726E0,3.8009186E0,6.6472473E0,3.4969604E2,0E0,0E0,0E0,0E0,0E0,0E0,0E0,0E0,0E0,0E0,0E0,0E0,0E0,0E0,0E0,0E0,0E0,0E0,0E0,0E0,0E0,0E0,0E0,0E0,0E0,0E0,0E0,0E0,0E0,0E0,0E0,0E0,0E0,0E0,0E0,0E0,0E0,0E0,0E0,0E0,0E0,0E0,0E0,0E0,0E0,0E0,0E0,0E0,0E0,0E0,0E0,0E0,0E0,0E0,0E0,0E0,0E0,0E0,0E0,0E0,0E0,0E0],"parents":[2147483647,0,0,1,1,2,2,3,3,4,4,5,5,6,6,7,7,8,8,9,9,10,10,11,11,12,12,13,13,14,14,15,15,16,16,17,17,18,18,19,19,20,20,21,21,22,22,23,23,24,24,25,25,26,26,27,27,28,28,29,29,30,30,31,31,32,32,33,33,34,34,35,35,36,36,37,37,38,38,39,39,40,40,41,41,42,42,43,43,44,44,45,45,46,46,47,47,48,48,49,49,50,50,51,51,52,52,53,53,55,55,56,56,57,57,58,58,59,59,60,60,61,61,62,62],"right_children":[2,4,6,8,10,12,14,16,18,20,22,24,26,28,30,32,34,36,38,40,42,44,46,48,50,52,54,56,58,60,62,64,66,68,70,72,74,76,78,80,82,84,86,88,90,92,94,96,98,100,102,104,106,108,-1,110,112,114,116,118,120,122,124,-1,-1,-1,-1,-1,-1,-1,-1,-1,-1,-1,-1,-1,-1,-1,-1,-1,-1,-1,-1,-1,-1,-1,-1,-1,-1,-1,-1,-1,-1,-1,-1,-1,-1,-1,-1,-1,-1,-1,-1,-1,-1,-1,-1,-1,-1,-1,-1,-1,-1,-1,-1,-1,-1,-1,-1,-1,-1,-1,-1,-1,-1],"split_conditions":[6.00001E0,2.00001E0,2.00001E0,1.796E2,1.788E2,7.279666E-2,2.00001E0,1.692E2,1.85E2,1.692E2,1.858E2,1.856E2,1.829E2,1.848E2,2.00001E0,2E0,6.86E1,1.827E2,4E0,2E0,2.3693684E1,2.00001E0,4E0,5.8567952E-2,4E0,1.788E2,1.938E2,1.843E2,1.893E2,9.12E1,2.00001E0,1.619E2,1.65E2,1.717E2,4E0,3E0,4E0,1.856E2,9.12E1,2.00001E0,2.0234673E1,2.00001E0,2.00001E0,4E0,9.71E1,3.0010426E1,8.84E1,1.85E2,4E0,2.7863674E1,5.8567952E-2,7.94E1,1.814E2,1.041E2,-2.3813709E-3,1.582E2,8.81E1,8.37E1,1.902E2,1.679E2,3.1584206E1,3.0010426E1,1.856E2,1.392845E-2,-1.264506E-2,4.4738594E-2,2.1796776E-2,-1.4602931E-2,2.5139495E-3,1.0716974E-2,5.7923097E-2,3.3594817E-2,6.3193165E-2,6.8033496E-3,3.7556577E-2,-2.12065E-2,3.4140818E-2,2.0367641E-2,-5.045621E-3,1.0016948E-1,4.6399914E-2,4.6790358E-2,9.606844E-2,3.7464302E-2,1.6826084E-2,5.7612218E-2,3.471256E-2,5.329101E-2,7.979469E-2,5.8068573E-2,3.7634116E-2,5.0107986E-2,7.836381E-2,3.769695E-2,-2.8231759E-3,-2.5225883E-2,-2.7203008E-3,-2.025154E-2,2.2839678E-2,-3.6955539E-3,5.6843914E-2,-1.5375309E-2,-1.0307404E-2,1.705957E-2,4.4470545E-2,-7.3273815E-3,1.6390443E-2,3.798115E-2,7.801038E-2,7.016172E-2,4.167697E-2,2.2076137E-2,-7.474723E-3,2.6493145E-2,7.0289515E-2,1.6618466E-2,5.3271648E-2,8.1611924E-2,5.1989246E-2,8.2621366E-2,3.7111156E-2,5.2636094E-2,8.048057E-2,-3.9867223E-3,1.0726838E-2],"split_indices":[49,2,2,44,44,52,37,44,44,44,44,44,44,44,34,47,45,44,47,50,46,0,47,52,47,44,44,44,44,45,40,44,44,44,47,47,47,44,45,40,46,3,0,47,45,46,45,44,47,46,52,45,44,45,0,44,45,45,44,44,46,46,44,0,0,0,0,0,0,0,0,0,0,0,0,0,0,0,0,0,0,0,0,0,0,0,0,0,0,0,0,0,0,0,0,0,0,0,0,0,0,0,0,0,0,0,0,0,0,0,0,0,0,0,0,0,0,0,0,0,0,0,0,0,0],"split_type":[0,0,0,0,0,0,0,0,0,0,0,0,0,0,0,0,0,0,0,0,0,0,0,0,0,0,0,0,0,0,0,0,0,0,0,0,0,0,0,0,0,0,0,0,0,0,0,0,0,0,0,0,0,0,0,0,0,0,0,0,0,0,0,0,0,0,0,0,0,0,0,0,0,0,0,0,0,0,0,0,0,0,0,0,0,0,0,0,0,0,0,0,0,0,0,0,0,0,0,0,0,0,0,0,0,0,0,0,0,0,0,0,0,0,0,0,0,0,0,0,0,0,0,0,0],"sum_hessian":[5.4414133E4,7.2443506E3,4.716978E4,2.3561492E3,4.888201E3,1.5660071E4,3.150971E4,1.697754E3,6.5839514E2,3.2825745E3,1.6056268E3,1.5489601E4,1.7047118E2,9.018139E2,3.0607896E4,6.829811E2,1.01477295E3,3.51148E2,3.072471E2,1.2827526E3,1.9998219E3,1.1524374E3,4.531894E2,1.3208202E4,2.2813982E3,1.3012341E2,4.0347763E1,7.6178204E2,1.4003189E2,3.1849466E2,3.0289402E4,2.2856192E2,4.5441913E2,2.6437155E2,7.504014E2,1.0385309E2,2.4729492E2,1.3126118E2,1.7598592E2,1.2490215E3,3.373116E1,8.113286E2,1.1884933E3,4.5402747E2,6.984099E2,2.5616553E2,1.9702388E2,2.8186694E3,1.0389532E4,1.374553E2,2.1439429E3,9.4697426E1,3.5425983E1,3.3724285E1,6.623481E0,7.4996906E2,1.1813006E1,6.003936E1,7.999252E1,2.4084001E2,7.765465E1,3.904415E2,2.989896E4,1.5792563E2,7.063629E1,7.7027504E1,3.7739163E2,1.797076E2,8.466396E1,7.381317E2,1.2269678E1,4.2033066E1,6.1820026E1,1.5280665E1,2.3201427E2,5.4307947E0,1.2583039E2,8.959833E1,8.638759E1,1.649817E1,1.2325233E3,5.348603E0,2.8382555E1,3.0721118E2,5.041174E2,4.5535977E2,7.3313354E2,8.921407E1,3.648134E2,4.8349484E2,2.1491508E2,2.0947864E2,4.668689E1,8.933445E1,1.0768943E2,2.7893376E3,2.9331709E1,1.0371573E4,1.795918E1,1.2498347E2,1.2471841E1,4.7260907E2,1.6713337E3,7.6006195E1,1.8691225E1,2.2990509E1,1.2435475E1,2.560143E1,8.122851E0,1.3887842E1,7.360812E2,5.5752354E0,6.2377706E0,5.787691E0,5.4251667E1,1.0390839E1,6.9601685E1,3.2783127E1,2.0805688E2,7.021269E1,7.441952E0,3.6427756E2,2.616395E1,2.5086955E4,4.812006E3],"tree_param":{"num_deleted":"0","num_feature":"55","num_nodes":"125","size_leaf_vector":"1"}},{"base_weights":[-4.8624366E-3,6.669788E-1,-1.1026293E-1,3.0855933E-1,8.384288E-1,-3.7042525E-1,1.7784527E-2,2.210348E-1,5.3713095E-1,5.621076E-1,9.013761E-1,-4.0426472E-1,-1.7668799E-1,5.1731133E-1,-1.07752355E-2,2.0047076E-1,8.854278E-1,6.9461584E-1,2.921319E-1,4.0467367E-1,7.8968024E-1,8.1383276E-1,1.0980908E0,2.572865E-1,-4.113427E-1,5.854902E-1,-1.8637626E-1,-1.2493272E-1,8.8838977E-1,1.0120851E0,-2.4795072E-2,3.3146906E-1,1.1625273E-1,3.684037E-1,1.2437693E0,7.222455E-1,-1.86521E-1,5.979178E-1,-2.109014E-2,5.7835376E-1,2.7272776E-1,8.868808E-1,4.2977327E-1,8.0062956E-1,1.7383804E0,1.2578653E0,8.7165457E-1,-3.260703E-2,3.0309355E-1,-5.1820993E-1,-3.8781467E-1,3.2988024E-1,6.8534195E-2,9.4495766E-2,-2.0470814E-1,-1.9233342E-1,2.014308E-1,1.28952E0,8.179452E-1,9.707912E-1,1.4953214E0,-7.1626104E-2,2.1679825E-1,6.4553157E-3,2.2010831E-2,-1.1789382E-2,1.0675441E-2,3.7141505E-3,4.003675E-2,2.3245584E-2,7.534278E-2,3.722556E-2,-1.1842857E-2,1.8904441E-3,-1.7418403E-2,6.386125E-2,2.7009064E-2,2.1213207E-2,-1.128418E-2,6.262732E-3,3.4339793E-2,8.594037E-3,2.970518E-2,3.2508347E-2,5.3814184E-2,9.83632E-3,4.8172478E-2,3.9286513E-2,6.694945E-2,9.389719E-2,4.397526E-2,6.69687E-2,3.4008313E-2,5.7354033E-2,3.2760944E-2,1.7422982E-2,-2.1113422E-2,-2.6295224E-2,-1.2248298E-2,-1.9643456E-2,-7.835542E-3,3.873802E-2,8.196928E-3,-1.4760441E-2,2.0334315E-2,4.5434884E-3,-1.0777769E-2,-2.156133E-2,-8.032012E-3,1.5088555E-2,-7.2720996E-3,9.0844154E-2,6.009966E-2,3.849012E-2,5.4375984E-2,4.930978E-2,1.4879375E-2,8.4662996E-2,5.2747875E-2,5.5007298E-2,-4.047132E-3,6.0311545E-2,1.0216782E-2],"categories":[],"categories_nodes":[],"categories_segments":[],"categories_sizes":[],"default_left":[0,0,0,0,0,0,0,0,0,0,0,0,0,0,0,0,0,0,0,0,0,0,0,0,0,0,0,0,0,0,0,0,0,0,0,0,0,0,0,0,0,0,0,0,0,0,0,0,0,0,0,0,0,0,0,0,0,0,0,0,0,0,0,0,0,0,0,0,0,0,0,0,0,0,0,0,0,0,0,0,0,0,0,0,0,0,0,0,0,0,0,0,0,0,0,0,0,0,0,0,0,0,0,0,0,0,0,0,0,0,0,0,0,0,0,0,0,0,0,0,0,0,0],"id":3,"left_children":[1,3,5,7,9,11,13,15,17,19,21,23,25,27,29,31,33,35,37,39,41,43,45,47,49,51,53,55,57,59,61,63,65,67,69,71,73,75,77,79,81,83,85,87,89,91,93,-1,95,97,99,101,-1,103,105,107,109,111,113,115,117,119,121,-1,-1,-1,-1,-1,-1,-1,-1,-1,-1,-1,-1,-1,-1,-1,-1,-1,-1,-1,-1,-1,-1,-1,-1,-1,-1,-1,-1,-1,-1,-1,-1,-1,-1,-1,-1,-1,-1,-1,-1,-1,-1,-1,-1,-1,-1,-1,-1,-1,-1,-1,-1,-1,-1,-1,-1,-1,-1,-1,-1],"loss_changes":[3.8517048E3,4.530144E2,1.5662863E3,4.766046E1,8.626782E1,1.0159912E2,4.4953522E2,2.3440895E1,2.5285385E1,3.293869E1,6.905127E1,6.1920654E1,1.7150032E1,4.0624124E2,4.2746216E2,1.847477E1,9.10302E0,9.906815E0,2.4934908E1,1.2463417E1,1.2861206E1,3.2966187E1,4.4054443E1,6.044897E0,3.2641846E1,5.4099474E0,1.1756523E1,1.3785278E1,2.9468811E1,6.5910034E0,3.3270093E2,1.4382126E1,3.5074474E1,2.8074994E0,5.4589386E0,8.491898E0,4.851087E-1,4.47546E0,1.1895918E1,1.1552994E1,1.0102741E1,1.2620621E1,1.0062792E1,2.1220947E1,2.996193E0,3.3436646E1,3.0219604E1,0E0,4.5669937E0,4.8202515E0,1.2447998E1,1.5969033E0,0E0,1.7195253E1,6.8815002E0,3.8561954E0,3.7839599E0,5.184204E0,1.1123047E1,3.58667E0,8.1809235E-1,2.689815E2,5.862909E1,0E0,0E0,0E0,0E0,0E0,0E0,0E0,0E0,0E0,0E0,0E0,0E0,0E0,0E0,0E0,0E0,0E0,0E0,0E0,0E0,0E0,0E0,0E0,0E0,0E0,0E0,0E0,0E0,0E0,0E0,0E0,0E0,0E0,0E0,0E0,0E0,0E0,0E0,0E0,0E0,0E0,0E0,0E0,0E0,0E0,0E0,0E0,0E0,0E0,0E0,0E0,0E0,0E0,0E0,0E0,0E0,0E0,0E0,0E0,0E0],"parents":[2147483647,0,0,1,1,2,2,3,3,4,4,5,5,6,6,7,7,8,8,9,9,10,10,11,11,12,12,13,13,14,14,15,15,16,16,17,17,18,18,19,19,20,20,21,21,22,22,23,23,24,24,25,25,26,26,27,27,28,28,29,29,30,30,31,31,32,32,33,33,34,34,35,35,36,36,37,37,38,38,39,39,40,40,41,41,42,42,43,43,44,44,45,45,46,46,48,48,49,49,50,50,51,51,53,53,54,54,55,55,56,56,57,57,58,58,59,59,60,60,61,61,62,62],"right_children":[2,4,6,8,10,12,14,16,18,20,22,24,26,28,30,32,34,36,38,40,42,44,46,48,50,52,54,56,58,60,62,64,66,68,70,72,74,76,78,80,82,84,86,88,90,92,94,-1,96,98,100,102,-1,104,106,108,110,112,114,116,118,120,122,-1,-1,-1,-1,-1,-1,-1,-1,-1,-1,-1,-1,-1,-1,-1,-1,-1,-1,-1,-1,-1,-1,-1,-1,-1,-1,-1,-1,-1,-1,-1,-1,-1,-1,-1,-1,-1,-1,-1,-1,-1,-1,-1,-1,-1,-1,-1,-1,-1,-1,-1,-1,-1,-1,-1,-1,-1,-1,-1,-1],"split_conditions":[6.00001E0,2.00001E0,2.00001E0,1.798E2,2.00001E0,1.856E2,5.4845575E-2,4E0,1.854E2,2.5674372E1,1.795E2,2.00001E0,2.00001E0,5.321156E-2,2.00001E0,1.692E2,5.9798732E-2,6.388996E-2,4E0,1.694E2,1.852E2,2E0,1.852E2,1.632E2,2.00001E0,3.0700216E1,4E0,1.85E2,2.00001E0,2.9832489E1,1.856E2,2E0,6.66E1,1.643E2,1.619E2,1.1E2,2.753002E1,-1E0,8.64E1,5.53E1,2.476812E1,1.776E2,1.87E2,4E0,6.61E1,1.036E2,4E0,-3.260703E-2,2.9423906E1,4E0,9.97E1,2.5640781E1,6.8534195E-2,8.53E1,5.721676E-2,6.22E1,1.119E2,1.702E2,1.848E2,2.9423906E1,3.1003262E1,2.00001E0,2.00001E0,6.4553157E-3,2.2010831E-2,-1.1789382E-2,1.0675441E-2,3.7141505E-3,4.003675E-2,2.3245584E-2,7.534278E-2,3.722556E-2,-1.1842857E-2,1.8904441E-3,-1.7418403E-2,6.386125E-2,2.7009064E-2,2.1213207E-2,-1.128418E-2,6.262732E-3,3.4339793E-2,8.594037E-3,2.970518E-2,3.2508347E-2,5.3814184E-2,9.83632E-3,4.8172478E-2,3.9286513E-2,6.694945E-2,9.389719E-2,4.397526E-2,6.69687E-2,3.4008313E-2,5.7354033E-2,3.2760944E-2,1.7422982E-2,-2.1113422E-2,-2.6295224E-2,-1.2248298E-2,-1.9643456E-2,-7.835542E-3,3.873802E-2,8.196928E-3,-1.4760441E-2,2.0334315E-2,4.5434884E-3,-1.0777769E-2,-2.156133E-2,-8.032012E-3,1.5088555E-2,-7.2720996E-3,9.0844154E-2,6.009966E-2,3.849012E-2,5.4375984E-2,4.930978E-2,1.4879375E-2,8.4662996E-2,5.2747875E-2,5.5007298E-2,-4.047132E-3,6.0311545E-2,1.0216782E-2],"split_indices":[49,2,2,44,4,44,52,47,44,46,44,26,26,52,40,44,52,52,47,44,44,49,44,44,19,46,47,44,24,46,44,47,45,44,44,45,46,49,45,45,46,44,44,47,45,45,47,0,46,47,45,46,0,45,52,45,45,44,44,46,46,30,39,0,0,0,0,0,0,0,0,0,0,0,0,0,0,0,0,0,0,0,0,0,0,0,0,0,0,0,0,0,0,0,0,0,0,0,0,0,0,0,0,0,0,0,0,0,0,0,0,0,0,0,0,0,0,0,0,0,0,0,0],"split_type":[0,0,0,0,0,0,0,0,0,0,0,0,0,0,0,0,0,0,0,0,0,0,0,0,0,0,0,0,0,0,0,0,0,0,0,0,0,0,0,0,0,0,0,0,0,0,0,0,0,0,0,0,0,0,0,0,0,0,0,0,0,0,0,0,0,0,0,0,0,0,0,0,0,0,0,0,0,0,0,0,0,0,0,0,0,0,0,0,0,0,0,0,0,0,0,0,0,0,0,0,0,0,0,0,0,0,0,0,0,0,0,0,0,0,0,0,0,0,0,0,0,0,0],"sum_hessian":[5.4391047E4,7.3751597E3,4.7015887E4,2.387288E3,4.987871E3,1.5507137E4,3.150875E4,1.7276892E3,6.5959894E2,9.2728375E2,4.0605876E3,1.3200382E4,2.306755E3,1.7031178E3,2.980563E4,1.6770825E3,5.060667E1,4.003924E2,2.5920657E2,5.4974805E2,3.7753564E2,2.813598E3,1.2469896E3,1.3936227E2,1.306102E4,2.8207829E1,2.278547E3,6.239242E2,1.0791936E3,4.0204456E2,2.9403586E4,6.5512384E2,1.02195874E3,2.1546673E1,2.9059998E1,3.8839392E2,1.1998475E1,1.3070029E2,1.2850627E2,2.3587846E2,3.138696E2,2.961026E2,8.1433044E1,2.775823E3,3.7774902E1,7.2844226E2,5.185473E2,6.048196E0,1.3331407E2,2.352888E3,1.0708132E4,2.2351654E1,5.856176E0,1.3934938E2,2.1391978E3,5.1746735E2,1.0645684E2,1.5862646E2,9.2056714E2,3.7316547E2,2.8879076E1,2.4629959E4,4.7736274E3,2.2976086E2,4.2536298E2,2.2090799E2,8.010507E2,1.35203905E1,8.026281E0,8.036214E0,2.1023785E1,3.7980054E2,8.59338E0,5.3497653E0,6.64871E0,8.583877E0,1.2211642E2,4.0113796E1,8.839247E1,4.5967842E1,1.8991063E2,2.4007077E2,7.3798836E1,1.3358372E2,1.6251888E2,5.7633953E1,2.3799091E1,2.7034634E3,7.235966E1,3.1474E1,6.300902E0,6.372174E2,9.1224846E1,2.2628618E2,2.9226114E2,1.25956055E2,7.3580246E0,2.287546E3,6.5341995E1,1.0478263E4,2.2986903E2,5.0755434E0,1.727611E1,6.200433E1,7.734505E1,7.546493E1,2.0637327E3,5.9133278E1,4.5833405E2,8.267218E1,2.3784658E1,1.976727E1,1.3885919E2,7.8434753E2,1.3621959E2,3.6436313E2,8.802363E0,1.7960777E1,1.0918298E1,1.9335968E2,2.44366E4,5.8187862E1,4.7154395E3],"tree_param":{"num_deleted":"0","num_feature":"55","num_nodes":"123","size_leaf_vector":"1"}},{"base_weights":[-2.5697146E-3,6.1513484E-1,-1.00104354E-1,2.8367534E-1,7.741489E-1,-3.4782195E-1,2.0748733E-2,1.9341613E-1,5.133226E-1,6.931704E-1,9.6033823E-1,-3.5585117E-1,3.524161E-1,7.61525E-1,-2.0461718E-3,1.7430702E-1,8.047761E-1,6.7046916E-1,2.9712805E-1,4.704021E-1,7.440113E-1,1.0878377E0,6.6564757E-1,-3.8609064E-1,-1.9107994E-1,2.1153086E-1,7.8081703E-1,7.382514E-1,1.0892439E0,1.1384896E0,-1.4202996E-2,1.6327311E-1,1.0666837E0,2.641149E-1,1.1806513E0,6.991601E-1,-1.998559E-2,5.4579633E-1,7.207884E-2,2.0307559E-1,5.551128E-1,7.3235357E-1,1.608754E0,1.3207257E0,9.3050593E-1,9.428967E-1,2.835779E-1,-4.6720108E-1,-3.63879E-1,-2.8656965E-1,-1.6352057E-1,3.092876E-1,-7.641663E-2,1.2740355E0,4.6451908E-1,6.591354E-2,7.270911E-1,2.9154781E-2,1.1855875E0,1.0052726E0,1.4269605E0,9.407325E-1,-2.7083544E-2,1.3992681E-2,4.5036557E-3,3.6105838E-2,8.1013404E-2,4.2132377E-3,3.717881E-2,2.1989604E-2,7.1485065E-2,2.0718655E-2,3.759148E-2,2.1780698E-2,4.093519E-2,1.3304344E-2,-9.044455E-3,2.3257067E-2,-4.3805926E-3,4.0467735E-2,2.2981836E-2,3.890985E-2,2.981785E-2,4.6779756E-2,8.4415935E-2,6.9336854E-2,5.280706E-2,6.0064998E-2,3.758305E-2,9.05287E-2,4.4398952E-2,2.4475131E-2,-5.1149153E-3,-1.3347536E-2,-2.4175057E-2,-1.8243171E-2,3.0597925E-2,-2.7431226E-3,-1.6526677E-2,-1.8935919E-2,-7.3434743E-3,1.1782921E-2,5.6254346E-2,-1.6622495E-2,6.8646157E-3,4.6711218E-2,8.3580546E-2,8.682194E-4,4.4817623E-2,3.6882218E-2,1.8836154E-2,7.1270406E-2,4.2760693E-2,8.3707914E-2,4.810389E-2,8.1239164E-2,5.3091187E-2,4.480585E-2,7.478017E-2,-3.5427827E-3,9.415329E-3],"categories":[],"categories_nodes":[],"categories_segments":[],"categories_sizes":[],"default_left":[0,0,0,0,0,0,0,0,0,0,0,0,0,0,0,0,0,0,0,0,0,0,0,0,0,0,0,0,0,0,0,0,0,0,0,0,0,0,0,0,0,0,0,0,0,0,0,0,1,0,0,0,0,0,0,0,0,0,0,0,0,0,0,0,0,0,0,0,0,0,0,0,0,0,0,0,0,0,0,0,0,0,0,0,0,0,0,0,0,0,0,0,0,0,0,0,0,0,0,0,0,0,0,0,0,0,0,0,0,0,0,0,0,0,0,0,0,0,0,0,0],"id":4,"left_children":[1,3,5,7,9,11,13,15,17,19,21,23,25,27,29,31,33,35,37,39,41,43,45,47,49,51,53,55,57,59,61,63,65,67,69,71,-1,73,75,77,79,81,83,85,87,89,91,93,95,97,99,101,103,105,107,-1,109,-1,111,113,115,117,119,-1,-1,-1,-1,-1,-1,-1,-1,-1,-1,-1,-1,-1,-1,-1,-1,-1,-1,-1,-1,-1,-1,-1,-1,-1,-1,-1,-1,-1,-1,-1,-1,-1,-1,-1,-1,-1,-1,-1,-1,-1,-1,-1,-1,-1,-1,-1,-1,-1,-1,-1,-1,-1,-1,-1,-1,-1,-1],"loss_changes":[3.2761953E3,3.906245E2,1.4059707E3,4.9765686E1,7.488306E1,8.670532E1,5.330091E2,2.0053703E1,2.2840317E1,3.923999E1,5.624243E1,7.578662E1,1.0401499E1,6.3831177E0,4.2462515E2,1.6342625E1,1.0279057E1,1.2312744E1,1.6035435E1,1.4657837E1,2.7495361E1,3.7489746E1,4.8507385E1,2.3004517E1,6.171356E0,3.7707734E0,6.109379E0,4.7569275E0,2.253067E0,1.0977631E1,3.7274152E2,1.4124825E1,2.7034588E0,1.8914077E0,4.9903755E0,5.4188843E0,0E0,3.7420769E0,7.504702E0,1.211735E1,1.1636978E1,1.7044678E1,4.0208435E-1,5.9349976E0,2.9803772E1,1.1086288E1,1.554929E1,8.885559E0,9.928345E0,5.3593025E0,6.5232353E0,5.7161846E0,1.9356015E0,6.282997E-1,5.341973E0,0E0,2.9334106E0,0E0,2.7232208E0,4.8708496E0,5.4728546E0,8.6440735E0,2.81909E2,0E0,0E0,0E0,0E0,0E0,0E0,0E0,0E0,0E0,0E0,0E0,0E0,0E0,0E0,0E0,0E0,0E0,0E0,0E0,0E0,0E0,0E0,0E0,0E0,0E0,0E0,0E0,0E0,0E0,0E0,0E0,0E0,0E0,0E0,0E0,0E0,0E0,0E0,0E0,0E0,0E0,0E0,0E0,0E0,0E0,0E0,0E0,0E0,0E0,0E0,0E0,0E0,0E0,0E0,0E0,0E0,0E0,0E0],"parents":[2147483647,0,0,1,1,2,2,3,3,4,4,5,5,6,6,7,7,8,8,9,9,10,10,11,11,12,12,13,13,14,14,15,15,16,16,17,17,18,18,19,19,20,20,21,21,22,22,23,23,24,24,25,25,26,26,27,27,28,28,29,29,30,30,31,31,32,32,33,33,34,34,35,35,37,37,38,38,39,39,40,40,41,41,42,42,43,43,44,44,45,45,46,46,47,47,48,48,49,49,50,50,51,51,52,52,53,53,54,54,56,56,58,58,59,59,60,60,61,61,62,62],"right_children":[2,4,6,8,10,12,14,16,18,20,22,24,26,28,30,32,34,36,38,40,42,44,46,48,50,52,54,56,58,60,62,64,66,68,70,72,-1,74,76,78,80,82,84,86,88,90,92,94,96,98,100,102,104,106,108,-1,110,-1,112,114,116,118,120,-1,-1,-1,-1,-1,-1,-1,-1,-1,-1,-1,-1,-1,-1,-1,-1,-1,-1,-1,-1,-1,-1,-1,-1,-1,-1,-1,-1,-1,-1,-1,-1,-1,-1,-1,-1,-1,-1,-1,-1,-1,-1,-1,-1,-1,-1,-1,-1,-1,-1,-1,-1,-1,-1,-1,-1,-1,-1],"split_conditions":[6.00001E0,2.00001E0,2.00001E0,1.796E2,1.798E2,7.279666E-2,2.00001E0,4E0,1.852E2,2.00001E0,1.858E2,1.852E2,1.829E2,1.052E2,2.00001E0,2E0,5.9798732E-2,6.388996E-2,4E0,2.180993E1,2E0,2.00001E0,4E0,5.8567952E-2,5.8567952E-2,1.788E2,1.867E2,1.582E2,2.8851965E1,8.86E1,2.00001E0,1.692E2,1.666E2,7.26E1,1.619E2,4E0,-1.998559E-2,2.9665253E1,2.6559721E1,1.694E2,1.685E2,1.771E2,5.12E1,1.005E2,2.6794361E1,3E0,9.12E1,2.00001E0,4E0,5.721676E-2,2.3894829E1,1.774E2,2.5487524E1,1.848E2,1.041E2,6.591354E-2,1.018E2,2.9154781E-2,1.119E2,1.629E2,1.022E2,3.0010426E1,1.852E2,1.3992681E-2,4.5036557E-3,3.6105838E-2,8.1013404E-2,4.2132377E-3,3.717881E-2,2.1989604E-2,7.1485065E-2,2.0718655E-2,3.759148E-2,2.1780698E-2,4.093519E-2,1.3304344E-2,-9.044455E-3,2.3257067E-2,-4.3805926E-3,4.0467735E-2,2.2981836E-2,3.890985E-2,2.981785E-2,4.6779756E-2,8.4415935E-2,6.9336854E-2,5.280706E-2,6.0064998E-2,3.758305E-2,9.05287E-2,4.4398952E-2,2.4475131E-2,-5.1149153E-3,-1.3347536E-2,-2.4175057E-2,-1.8243171E-2,3.0597925E-2,-2.7431226E-3,-1.6526677E-2,-1.8935919E-2,-7.3434743E-3,1.1782921E-2,5.6254346E-2,-1.6622495E-2,6.8646157E-3,4.6711218E-2,8.3580546E-2,8.682194E-4,4.4817623E-2,3.6882218E-2,1.8836154E-2,7.1270406E-2,4.2760693E-2,8.3707914E-2,4.810389E-2,8.1239164E-2,5.3091187E-2,4.480585E-2,7.478017E-2,-3.5427827E-3,9.415329E-3],"split_indices":[49,2,2,44,44,52,37,47,44,4,44,44,44,45,34,50,52,52,47,46,50,0,47,52,52,44,44,44,46,45,40,44,44,45,44,47,0,46,46,44,44,44,45,45,46,47,45,31,47,52,46,44,46,44,45,0,45,0,45,44,45,46,44,0,0,0,0,0,0,0,0,0,0,0,0,0,0,0,0,0,0,0,0,0,0,0,0,0,0,0,0,0,0,0,0,0,0,0,0,0,0,0,0,0,0,0,0,0,0,0,0,0,0,0,0,0,0,0,0,0,0],"split_type":[0,0,0,0,0,0,0,0,0,0,0,0,0,0,0,0,0,0,0,0,0,0,0,0,0,0,0,0,0,0,0,0,0,0,0,0,0,0,0,0,0,0,0,0,0,0,0,0,0,0,0,0,0,0,0,0,0,0,0,0,0,0,0,0,0,0,0,0,0,0,0,0,0,0,0,0,0,0,0,0,0,0,0,0,0,0,0,0,0,0,0,0,0,0,0,0,0,0,0,0,0,0,0,0,0,0,0,0,0,0,0,0,0,0,0,0,0,0,0,0,0],"sum_hessian":[5.437684E4,7.414454E3,4.6962387E4,2.404707E3,5.009747E3,1.5398192E4,3.1564195E4,1.7275593E3,6.771476E2,3.4945867E3,1.5151606E3,1.5224118E4,1.7407417E2,9.4131903E2,3.0622875E4,1.6764442E3,5.111507E1,3.909062E2,2.8624142E2,6.5125433E2,2.8433323E3,1.0557107E3,4.5944995E2,1.2862245E4,2.3618728E3,1.3211891E2,4.1955265E1,8.819391E2,5.9379906E1,3.2198578E2,3.030089E4,1.6571373E3,1.9306913E1,2.1660769E1,2.9454304E1,3.8103748E2,9.868712E0,1.3530779E2,1.5093365E2,1.5752875E2,4.9372556E2,2.8073333E3,3.599917E1,4.2266803E2,6.330426E2,2.6539673E2,1.9405324E2,2.7607527E3,1.0101492E4,5.268852E2,1.8349877E3,9.857804E1,3.354087E1,1.5209853E1,2.674541E1,1.4438274E1,8.6750085E2,1.0623073E1,4.8756832E1,2.2333409E2,9.865168E1,4.0231226E2,2.9898578E4,6.380835E2,1.0190539E3,1.3320369E1,5.986544E0,1.6607061E1,5.0537057E0,8.106233E0,2.1348072E1,6.0855484E1,3.2018198E2,9.824074E1,3.706705E1,8.539219E1,6.554146E1,8.25272E1,7.500155E1,1.3275012E2,3.6097543E2,2.0960493E3,7.112839E2,5.1538506E0,3.084532E1,3.348778E2,8.7790215E1,2.495203E2,3.835223E2,1.3894853E1,2.5150186E2,1.2635482E2,6.769841E1,2.0911348E2,2.5516392E3,1.00919375E4,9.55488E0,8.438588E1,4.4249933E2,1.3022482E2,1.7047628E3,9.159966E1,6.9783754E0,1.500662E1,1.8534248E1,1.0006779E1,5.203075E0,1.3650651E1,1.3094761E1,8.410624E2,2.6438469E1,2.6329517E1,2.2427315E1,1.12570305E1,2.1207707E2,6.1748146E1,3.6903534E1,3.7479144E2,2.7520811E1,2.484931E4,5.049267E3],"tree_param":{"num_deleted":"0","num_feature":"55","num_nodes":"121","size_leaf_vector":"1"}},{"base_weights":[1.6934221E-3,5.8264256E-1,-9.117884E-2,8.5888535E-1,4.8857704E-1,4.5665413E-1,-1.158886E-1,6.316913E-1,9.810936E-1,7.217886E-1,3.6682406E-1,7.666474E-1,-1.4340124E-2,1.0291161E-1,-1.9266081E-1,9.240868E-1,5.0706893E-1,1.110568E0,9.257219E-1,7.097414E-1,8.210071E-2,2.4707392E-1,5.37034E-1,1.0954409E0,7.152368E-1,-5.1339593E-2,6.1880314E-1,1.0416459E0,7.572323E-2,-1.9009558E-2,-2.8959414E-1,6.787475E-1,1.1098882E0,4.8798332E-1,1.24081E0,3.8045406E-1,1.1305317E0,9.174233E-1,8.308356E-2,2.7379587E-1,7.252091E-1,2.3058E-1,1.2493954E0,1.086303E0,4.8205668E-1,1.1773224E0,7.6934266E-1,6.71409E-1,9.4392264E-1,5.4137206E-1,-6.95674E-2,9.3417996E-1,1.20856114E-1,9.4265383E-1,1.2582273E0,9.133136E-1,4.3656137E-2,8.546179E-1,-5.2522406E-2,-3.2317862E-1,-1.2649342E-1,3.8259916E-2,-2.5562475E-2,6.2227935E-2,4.337711E-2,2.1003064E-2,3.318582E-2,3.4595277E-2,8.0225445E-2,2.635938E-2,8.797443E-3,4.688667E-2,6.1305594E-2,4.482494E-2,5.5551697E-2,7.850151E-2,-7.895409E-3,3.255945E-2,3.998769E-2,6.6840164E-3,1.7015766E-2,8.226347E-2,4.0382218E-2,6.016014E-2,3.5145428E-2,3.172748E-2,2.0906312E-2,5.3230375E-2,7.610246E-2,1.014217E-3,5.1996965E-2,3.264701E-2,4.716457E-2,5.801334E-2,4.31466E-2,1.4068502E-2,4.862328E-2,-2.2175377E-2,-1.6942447E-3,2.8789261E-2,6.521026E-2,-1.1864389E-2,1.789553E-2,7.67093E-2,4.5562938E-2,6.5671995E-2,2.0834446E-2,4.354091E-2,7.118474E-2,-2.496443E-4,1.25723705E-2,3.4080967E-2,4.9698822E-2,5.674867E-2,-3.8111128E-3,-1.1537696E-2,-1.79388E-2,2.2166186E-4,-9.201476E-3],"categories":[],"categories_nodes":[],"categories_segments":[],"categories_sizes":[],"default_left":[0,0,0,0,0,0,0,0,0,0,1,0,0,0,0,0,0,0,0,0,0,0,0,0,0,0,0,0,0,0,0,0,0,0,0,0,0,0,0,0,0,0,0,0,0,0,0,0,0,0,0,0,0,0,0,0,0,0,0,0,0,0,0,0,0,0,0,0,0,0,0,0,0,0,0,0,0,0,0,0,0,0,0,0,0,0,0,0,0,0,0,0,0,0,0,0,0,0,0,0,0,0,0,0,0,0,0,0,0,0,0,0,0,0,0,0,0,0,0],"id":5,"left_children":[1,3,5,7,9,11,13,15,17,19,21,23,25,27,29,31,33,35,37,39,-1,41,43,45,47,49,51,53,55,57,59,61,63,65,67,69,71,73,-1,75,77,79,81,83,85,87,89,91,93,95,97,99,101,103,105,107,109,111,113,115,117,-1,-1,-1,-1,-1,-1,-1,-1,-1,-1,-1,-1,-1,-1,-1,-1,-1,-1,-1,-1,-1,-1,-1,-1,-1,-1,-1,-1,-1,-1,-1,-1,-1,-1,-1,-1,-1,-1,-1,-1,-1,-1,-1,-1,-1,-1,-1,-1,-1,-1,-1,-1,-1,-1,-1,-1,-1,-1],"loss_changes":[2.931343E3,1.9416333E2,6.3414557E2,5.2157593E1,1.584148E2,2.9520532E2,7.52917E2,2.386026E1,7.8201904E0,2.0073486E1,7.474597E1,1.982721E1,1.8854242E1,2.970702E2,5.584949E2,8.286423E0,5.9812317E0,4.885681E0,3.7919312E0,1.256488E1,0E0,3.5393753E1,4.5265137E1,3.4463806E0,9.963684E0,8.249106E0,6.8657207E0,5.838257E0,3.0389557E2,3.480769E2,1.16597046E2,9.448002E0,2.55188E0,5.212723E0,1.1409454E0,2.4374747E-1,5.3826904E0,2.5003052E0,0E0,3.7440315E1,9.562073E0,2.2546135E1,4.742161E0,5.3018036E0,1.3189728E1,3.3685303E0,7.194475E0,3.856842E0,1.9351501E0,2.280851E0,9.835648E0,2.8373756E0,1.6453906E0,2.851883E0,4.089157E0,7.8089294E0,1.1018482E2,9.911407E0,3.2230222E2,5.8009888E1,2.7402512E1,0E0,0E0,0E0,0E0,0E0,0E0,0E0,0E0,0E0,0E0,0E0,0E0,0E0,0E0,0E0,0E0,0E0,0E0,0E0,0E0,0E0,0E0,0E0,0E0,0E0,0E0,0E0,0E0,0E0,0E0,0E0,0E0,0E0,0E0,0E0,0E0,0E0,0E0,0E0,0E0,0E0,0E0,0E0,0E0,0E0,0E0,0E0,0E0,0E0,0E0,0E0,0E0,0E0,0E0,0E0,0E0,0E0,0E0],"parents":[2147483647,0,0,1,1,2,2,3,3,4,4,5,5,6,6,7,7,8,8,9,9,10,10,11,11,12,12,13,13,14,14,15,15,16,16,17,17,18,18,19,19,21,21,22,22,23,23,24,24,25,25,26,26,27,27,28,28,29,29,30,30,31,31,32,32,33,33,34,34,35,35,36,36,37,37,39,39,40,40,41,41,42,42,43,43,44,44,45,45,46,46,47,47,48,48,49,49,50,50,51,51,52,52,53,53,54,54,55,55,56,56,57,57,58,58,59,59,60,60],"right_children":[2,4,6,8,10,12,14,16,18,20,22,24,26,28,30,32,34,36,38,40,-1,42,44,46,48,50,52,54,56,58,60,62,64,66,68,70,72,74,-1,76,78,80,82,84,86,88,90,92,94,96,98,100,102,104,106,108,110,112,114,116,118,-1,-1,-1,-1,-1,-1,-1,-1,-1,-1,-1,-1,-1,-1,-1,-1,-1,-1,-1,-1,-1,-1,-1,-1,-1,-1,-1,-1,-1,-1,-1,-1,-1,-1,-1,-1,-1,-1,-1,-1,-1,-1,-1,-1,-1,-1,-1,-1,-1,-1,-1,-1,-1,-1,-1,-1,-1,-1],"split_conditions":[6.00001E0,2.00001E0,2.00001E0,2.3693684E1,2.00001E0,6.1062254E-2,2.00001E0,6.626553E-2,6.626553E-2,2E0,3E0,2.00001E0,1.064E2,2.00001E0,2.00001E0,2E0,2E0,6.63E1,2E0,2.00001E0,8.210071E-2,2E0,2.00001E0,2.7643745E1,4E0,5.46E1,3.0837141E1,8.84E1,2.00001E0,2.00001E0,4E0,6.63E1,7.02E1,3E0,5.94E1,2.4306393E1,1E0,3.0105856E1,8.308356E-2,1E0,3E0,2.3554295E1,6.19E1,9.81E1,2.00001E0,8.31E1,9.24E1,2.9352922E1,2.5244349E1,5.31E1,6.32E1,1.1E2,3.1584206E1,5.64E1,3.1584206E1,3.0010426E1,4E0,7.62E1,2.00001E0,2.00001E0,2.00001E0,3.8259916E-2,-2.5562475E-2,6.2227935E-2,4.337711E-2,2.1003064E-2,3.318582E-2,3.4595277E-2,8.0225445E-2,2.635938E-2,8.797443E-3,4.688667E-2,6.1305594E-2,4.482494E-2,5.5551697E-2,7.850151E-2,-7.895409E-3,3.255945E-2,3.998769E-2,6.6840164E-3,1.7015766E-2,8.226347E-2,4.0382218E-2,6.016014E-2,3.5145428E-2,3.172748E-2,2.0906312E-2,5.3230375E-2,7.610246E-2,1.014217E-3,5.1996965E-2,3.264701E-2,4.716457E-2,5.801334E-2,4.31466E-2,1.4068502E-2,4.862328E-2,-2.2175377E-2,-1.6942447E-3,2.8789261E-2,6.521026E-2,-1.1864389E-2,1.789553E-2,7.67093E-2,4.5562938E-2,6.5671995E-2,2.0834446E-2,4.354091E-2,7.118474E-2,-2.496443E-4,1.25723705E-2,3.4080967E-2,4.9698822E-2,5.674867E-2,-3.8111128E-3,-1.1537696E-2,-1.79388E-2,2.2166186E-4,-9.201476E-3],"split_indices":[49,0,1,46,3,52,0,52,52,50,48,24,45,34,3,48,50,45,50,39,0,50,1,46,48,45,46,45,40,39,48,45,45,48,45,46,49,46,0,49,48,46,45,45,4,45,45,46,46,45,45,45,46,45,46,46,48,45,30,4,4,0,0,0,0,0,0,0,0,0,0,0,0,0,0,0,0,0,0,0,0,0,0,0,0,0,0,0,0,0,0,0,0,0,0,0,0,0,0,0,0,0,0,0,0,0,0,0,0,0,0,0,0,0,0,0,0,0,0],"split_type":[0,0,0,0,0,0,0,0,0,0,0,0,0,0,0,0,0,0,0,0,0,0,0,0,0,0,0,0,0,0,0,0,0,0,0,0,0,0,0,0,0,0,0,0,0,0,0,0,0,0,0,0,0,0,0,0,0,0,0,0,0,0,0,0,0,0,0,0,0,0,0,0,0,0,0,0,0,0,0,0,0,0,0,0,0,0,0,0,0,0,0,0,0,0,0,0,0,0,0,0,0,0,0,0,0,0,0,0,0,0,0,0,0,0,0,0,0,0,0],"sum_hessian":[5.4328363E4,7.487308E3,4.6841055E4,1.8998568E3,5.587451E3,2.020809E3,4.4820246E4,6.666586E2,1.2331981E3,1.9148074E3,3.6726438E3,1.2183213E3,8.024876E2,1.1641557E4,3.317869E4,1.9730833E2,4.6935028E2,3.6370303E2,8.694951E2,1.8918119E3,2.2995476E1,2.1573232E3,1.5153204E3,1.619936E2,1.0563278E3,7.590494E2,4.343823E1,3.266313E2,1.1314926E4,1.1886254E4,2.1292436E4,8.703588E1,1.1027246E2,4.590742E2,1.0276095E1,1.0213941E1,3.534891E2,8.6202155E2,7.473561E0,6.546369E1,1.8263481E3,2.123608E3,3.3715435E1,1.3616447E2,1.379156E3,1.2739505E2,3.4598568E1,8.897438E2,1.6658394E2,2.1790468E1,7.372589E2,2.6058136E1,1.7380093E1,2.2784393E2,9.878737E1,4.162047E2,1.0898721E4,4.382135E2,1.1448041E4,1.7655887E4,3.6365496E3,8.1473946E1,5.5619383E0,6.822482E1,4.2047638E1,3.3354648E2,1.2552772E2,5.252017E0,5.024078E0,5.0282655E0,5.185675E0,1.2074374E2,2.3274535E2,7.830259E2,7.899565E1,1.5696518E1,4.9767178E1,9.212835E2,9.0506464E2,1.1289385E3,9.946694E2,1.63442E1,1.7371237E1,1.0270932E2,3.3455143E1,4.0475943E2,9.7439655E2,9.9085464E1,2.830958E1,9.467063E0,2.5131504E1,8.3633356E2,5.3410225E1,4.174577E1,1.2483817E2,1.4623438E1,7.1670303E0,6.322751E1,6.7403143E2,1.453554E1,1.1522596E1,6.9217186E0,1.0458375E1,9.070704E0,2.1877322E2,9.2178856E1,6.6085157E0,3.8671246E2,2.9492262E1,8.831927E3,2.0667942E3,1.9813788E2,2.4007562E2,2.2308989E2,1.1224951E4,4.9114155E3,1.2744472E4,1.1104899E3,2.5260596E3],"tree_param":{"num_deleted":"0","num_feature":"55","num_nodes":"119","size_leaf_vector":"1"}},{"base_weights":[-1.1553083E-3,5.56375E-1,-9.196332E-2,2.5809065E-1,6.967536E-1,-3.2324353E-1,1.8717756E-2,1.6469987E-1,3.9039922E-1,6.153586E-1,8.06304E-1,3.6550432E-1,-3.30974E-1,6.770629E-1,-2.0467655E-3,1.5236579E-1,8.8577807E-1,3.6528796E-1,6.5502924E-1,6.030313E-1,1.384227E0,9.3614525E-1,7.209013E-1,3.2753244E-1,5.0117206E-2,-3.5576278E-1,-2.0412268E-1,6.077394E-1,8.266594E-1,9.67521E-1,-1.2749863E-2,6.140321E-2,2.557998E-1,6.938559E-2,5.9238666E-1,2.867555E-1,4.1587117E-1,7.614124E-1,2.959631E-1,3.726326E-1,6.4167535E-1,3.4009263E-2,1.4669309E0,1.1008204E0,8.6606324E-1,8.740482E-1,6.5224224E-1,3.7977675E-1,-2.256366E-2,-4.7522578E-1,-3.298157E-1,-3.2331836E-1,-1.7724735E-1,7.098213E-1,4.873391E-1,9.708788E-1,7.515545E-1,8.271691E-1,1.2236128E0,-5.5085547E-2,1.8322594E-1,3.0980835E-2,2.1583114E-3,1.4468296E-2,-1.23083E-2,5.8016658E-2,1.1994763E-2,1.8123796E-2,6.548834E-3,1.9731378E-2,3.5984393E-2,2.6477559E-2,4.8312336E-2,-8.243031E-3,2.8727898E-2,7.1401135E-3,2.2186924E-2,3.1507235E-2,5.3397622E-2,8.266568E-2,5.7820022E-2,4.9337458E-2,6.448982E-2,7.1340995E-3,4.4253338E-2,5.0103646E-2,3.6807593E-2,6.091357E-2,3.157335E-2,1.10171465E-2,2.9093688E-2,-2.8196711E-2,-2.3061609E-2,-1.6719135E-2,-1.027787E-2,-1.8184919E-2,5.040777E-4,-1.3233194E-2,-7.784277E-3,3.1550333E-2,4.2195898E-2,-1.3956808E-2,2.5157008E-2,6.290377E-2,4.4951282E-2,-1.9219125E-2,3.9287373E-2,5.0696045E-2,2.8155988E-2,6.6418014E-2,3.0085254E-2,4.4429958E-2,-3.142763E-3,3.143261E-4,1.1451136E-2],"categories":[],"categories_nodes":[],"categories_segments":[],"categories_sizes":[],"default_left":[0,0,0,1,1,0,0,0,0,0,0,0,0,0,0,0,0,0,0,0,0,0,0,0,0,0,0,0,0,0,0,0,0,0,0,0,0,0,0,0,0,0,0,0,0,0,0,0,0,0,0,0,0,0,0,0,0,0,0,0,0,0,0,0,0,0,0,0,0,0,0,0,0,0,0,0,0,0,0,0,0,0,0,0,0,0,0,0,0,0,0,0,0,0,0,0,0,0,0,0,0,0,0,0,0,0,0,0,0,0,0,0,0,0,0],"id":6,"left_children":[1,3,5,7,9,11,13,15,17,19,21,23,25,27,29,31,33,35,37,39,41,43,45,47,-1,49,51,53,55,57,59,61,63,-1,65,67,69,71,73,75,77,-1,79,81,83,85,87,89,-1,91,93,95,97,99,101,103,105,107,109,111,113,-1,-1,-1,-1,-1,-1,-1,-1,-1,-1,-1,-1,-1,-1,-1,-1,-1,-1,-1,-1,-1,-1,-1,-1,-1,-1,-1,-1,-1,-1,-1,-1,-1,-1,-1,-1,-1,-1,-1,-1,-1,-1,-1,-1,-1,-1,-1,-1,-1,-1,-1,-1,-1,-1],"loss_changes":[2.748978E3,3.1826392E2,1.1952516E3,3.002739E1,4.5610107E1,8.0586426E1,4.317147E2,1.2577408E1,6.452179E0,2.7322754E1,2.3730713E1,3.7395306E0,4.692334E1,9.511566E0,3.177256E2,1.3217682E1,2.687233E0,3.5431366E0,3.060135E0,2.5809937E1,1.6869049E0,9.086121E0,1.3435852E1,6.6911316E0,0E0,3.8592896E1,7.7766724E0,7.810379E0,2.552246E0,1.1003387E1,2.5125832E2,7.6052127E0,1.115498E1,0E0,3.0817661E0,4.250988E0,3.3209152E0,2.6093864E0,2.8285706E0,6.843178E0,1.1635254E1,0E0,4.2612457E-1,4.245941E0,8.326782E0,6.4894714E0,1.0091949E1,4.7277184E0,0E0,2.5061035E0,5.7614746E0,6.0447884E0,3.7243195E0,3.2398682E0,3.8667755E0,9.393921E-1,8.212631E0,1.0229828E1,6.7744293E0,1.8265405E2,4.359326E1,0E0,0E0,0E0,0E0,0E0,0E0,0E0,0E0,0E0,0E0,0E0,0E0,0E0,0E0,0E0,0E0,0E0,0E0,0E0,0E0,0E0,0E0,0E0,0E0,0E0,0E0,0E0,0E0,0E0,0E0,0E0,0E0,0E0,0E0,0E0,0E0,0E0,0E0,0E0,0E0,0E0,0E0,0E0,0E0,0E0,0E0,0E0,0E0,0E0,0E0,0E0,0E0,0E0,0E0],"parents":[2147483647,0,0,1,1,2,2,3,3,4,4,5,5,6,6,7,7,8,8,9,9,10,10,11,11,12,12,13,13,14,14,15,15,16,16,17,17,18,18,19,19,20,20,21,21,22,22,23,23,25,25,26,26,27,27,28,28,29,29,30,30,31,31,32,32,34,34,35,35,36,36,37,37,38,38,39,39,40,40,42,42,43,43,44,44,45,45,46,46,47,47,49,49,50,50,51,51,52,52,53,53,54,54,55,55,56,56,57,57,58,58,59,59,60,60],"right_children":[2,4,6,8,10,12,14,16,18,20,22,24,26,28,30,32,34,36,38,40,42,44,46,48,-1,50,52,54,56,58,60,62,64,-1,66,68,70,72,74,76,78,-1,80,82,84,86,88,90,-1,92,94,96,98,100,102,104,106,108,110,112,114,-1,-1,-1,-1,-1,-1,-1,-1,-1,-1,-1,-1,-1,-1,-1,-1,-1,-1,-1,-1,-1,-1,-1,-1,-1,-1,-1,-1,-1,-1,-1,-1,-1,-1,-1,-1,-1,-1,-1,-1,-1,-1,-1,-1,-1,-1,-1,-1,-1,-1,-1,-1,-1,-1],"split_conditions":[3E0,2.00001E0,2.00001E0,3E0,3E0,2.00001E0,2.00001E0,2E0,1.041E2,2E0,2.00001E0,3.0700216E1,4E0,8.64E1,2.00001E0,2.3554295E1,2.00001E0,3E0,3.215636E1,2.00001E0,5.22E1,6.626553E-2,6.1062254E-2,2.9352922E1,5.0117206E-2,2.00001E0,2.00001E0,7.46E1,9.16E1,8.67E1,4E0,5.721676E-2,8.48E1,6.938559E-2,2.1960371E1,2.756332E1,2.9912485E1,3.1003262E1,3.25988E1,2.1427713E1,4E0,3.4009263E-2,6.19E1,9.39E1,7.26E1,4E0,2.00001E0,7.85E1,-2.256366E-2,2E0,2.9912485E1,3.1179003E1,8.96E1,2.3377007E1,2E0,2.5817017E1,9.19E1,2.4675125E1,3.0700216E1,2.00001E0,2.00001E0,3.0980835E-2,2.1583114E-3,1.4468296E-2,-1.23083E-2,5.8016658E-2,1.1994763E-2,1.8123796E-2,6.548834E-3,1.9731378E-2,3.5984393E-2,2.6477559E-2,4.8312336E-2,-8.243031E-3,2.8727898E-2,7.1401135E-3,2.2186924E-2,3.1507235E-2,5.3397622E-2,8.266568E-2,5.7820022E-2,4.9337458E-2,6.448982E-2,7.1340995E-3,4.4253338E-2,5.0103646E-2,3.6807593E-2,6.091357E-2,3.157335E-2,1.10171465E-2,2.9093688E-2,-2.8196711E-2,-2.3061609E-2,-1.6719135E-2,-1.027787E-2,-1.8184919E-2,5.040777E-4,-1.3233194E-2,-7.784277E-3,3.1550333E-2,4.2195898E-2,-1.3956808E-2,2.5157008E-2,6.290377E-2,4.4951282E-2,-1.9219125E-2,3.9287373E-2,5.0696045E-2,2.8155988E-2,6.6418014E-2,3.0085254E-2,4.4429958E-2,-3.142763E-3,3.143261E-4,1.1451136E-2],"split_indices":[49,2,2,48,48,26,37,50,45,50,0,46,47,45,34,46,6,47,46,7,45,53,53,46,0,19,19,45,45,45,48,53,45,0,46,46,46,46,46,46,47,0,45,45,45,47,36,45,0,47,46,46,45,46,47,46,45,46,46,30,4,0,0,0,0,0,0,0,0,0,0,0,0,0,0,0,0,0,0,0,0,0,0,0,0,0,0,0,0,0,0,0,0,0,0,0,0,0,0,0,0,0,0,0,0,0,0,0,0,0,0,0,0,0,0],"split_type":[0,0,0,0,0,0,0,0,0,0,0,0,0,0,0,0,0,0,0,0,0,0,0,0,0,0,0,0,0,0,0,0,0,0,0,0,0,0,0,0,0,0,0,0,0,0,0,0,0,0,0,0,0,0,0,0,0,0,0,0,0,0,0,0,0,0,0,0,0,0,0,0,0,0,0,0,0,0,0,0,0,0,0,0,0,0,0,0,0,0,0,0,0,0,0,0,0,0,0,0,0,0,0,0,0,0,0,0,0,0,0,0,0,0,0],"sum_hessian":[5.4295332E4,7.604032E3,4.66913E4,2.4343103E3,5.1697217E3,1.5111742E4,3.157956E4,1.4283474E3,1.0059628E3,2.9698005E3,2.1999214E3,1.6721721E2,1.4944525E4,9.6461316E2,3.0614947E4,1.4055173E3,2.283013E1,9.209523E2,8.501057E1,2.924693E3,4.510741E1,8.6891376E2,1.3310076E3,1.5923694E2,7.9802723E0,1.250002E4,2.4445059E3,6.626167E2,3.019965E2,3.3329355E2,3.0281652E4,7.486918E2,6.568256E2,7.045978E0,1.5784151E1,3.6341116E2,5.5754114E2,6.471611E1,2.0294456E1,4.2161783E2,2.5030752E3,5.7114367E0,3.9395973E1,2.5500604E2,6.139077E2,4.0837668E2,9.226309E2,1.4970659E2,9.530348E0,2.2274238E3,1.0272596E4,4.4773038E2,1.9967755E3,3.5593787E2,3.066788E2,9.93307E1,2.0266579E2,2.1803096E2,1.15262566E2,2.4902754E4,5.3789E3,2.264288E1,7.260489E2,6.1605396E2,4.0771606E1,5.167036E0,1.0617115E1,2.4365121E2,1.1975996E2,5.2325287E2,3.428823E1,3.2037117E1,3.2678997E1,7.8002706E0,1.2494185E1,1.0033159E2,3.2128622E2,2.439564E3,6.3511204E1,2.1917042E1,1.7478933E1,1.6289783E2,9.2108215E1,1.5932579E1,5.979751E2,2.085185E2,1.9985818E2,3.0623997E1,8.920069E2,8.485499E1,6.485161E1,2.981412E2,1.9292827E3,9.906788E3,3.6580756E2,3.9928033E2,4.8450024E1,3.9283957E2,1.6039359E3,2.2777179E2,1.2816609E2,5.8579183E0,3.008209E2,1.657432E1,8.275638E1,5.622924E0,1.9704286E2,1.2604463E2,9.1986336E1,9.767526E1,1.7587309E1,2.0243356E2,2.470032E4,1.106189E3,4.272711E3],"tree_param":{"num_deleted":"0","num_feature":"55","num_nodes":"115","size_leaf_vector":"1"}},{"base_weights":[2.306058E-3,5.301355E-1,-8.445423E-2,2.5757617E-1,6.5696454E-1,-3.1085688E-1,2.3138558E-2,4.8768592E-1,1.9037777E-1,8.329842E-1,5.995118E-1,-3.1852493E-1,3.2716838E-1,6.558788E-1,3.3153836E-3,4.6445838E-1,8.098846E-1,1.7493115E-1,1.0728852E0,9.425508E-2,8.1941944E-1,5.871712E-1,1.410169E0,-1.8829814E-1,-3.4423235E-1,2.45677E-1,6.492761E-1,6.3793415E-1,9.943021E-1,8.766293E-1,-8.706477E-3,6.4534235E-1,4.0909335E-1,1.1692185E0,3.2776782E-1,8.892447E-2,2.3740473E-1,7.853418E-1,7.224569E-2,9.399591E-1,7.0751977E-1,3.8096726E-1,6.3300276E-1,9.7524786E-1,7.713747E-2,-2.1666783E-1,-1.0414243E-1,-4.3733093E-1,-3.239298E-1,3.7281103E-2,1.9644508E-1,6.070278E-2,3.810738E-1,6.9197583E-1,5.494919E-1,1.3201557E0,6.2682956E-1,8.3964765E-1,1.3309062E0,9.085214E-1,-1.9176202E-2,1.8293718E-2,3.6403008E-2,-6.902819E-3,2.2160294E-2,6.599317E-2,3.7571173E-2,2.719807E-2,8.623309E-3,1.8634312E-2,2.8741613E-3,1.3900302E-2,5.4792077E-3,5.6388088E-2,4.218187E-3,3.2434434E-2,5.0266452E-2,9.668801E-3,3.8816597E-2,-1.8914925E-3,2.0660443E-2,3.025992E-2,4.2695116E-2,7.222827E-2,2.5389364E-2,-1.049568E-2,-2.3040961E-2,1.3657929E-2,-5.992316E-3,-1.9663E-2,-2.3311038E-2,-1.6420959E-2,-5.623972E-3,1.18090045E-2,-1.4110987E-2,-2.0703917E-2,3.0454356E-2,3.163696E-2,3.85775E-2,-4.140849E-3,2.8914899E-2,3.4741122E-2,7.32525E-2,-1.1512523E-2,4.4390365E-2,4.305413E-2,1.6446303E-3,8.1542164E-2,4.1919585E-2,4.1021246E-2,5.6168195E-2,3.8953725E-2,-1.560845E-3],"categories":[],"categories_nodes":[],"categories_segments":[],"categories_sizes":[],"default_left":[0,0,0,0,0,0,0,0,0,0,0,0,0,0,0,0,0,0,0,0,0,0,0,0,0,0,0,0,0,0,0,0,0,0,0,0,0,0,0,0,0,0,0,0,0,0,0,0,0,0,0,0,0,0,0,0,0,0,0,0,0,0,0,0,0,0,0,0,0,0,0,0,0,0,0,0,0,0,0,0,0,0,0,0,0,0,0,0,0,0,0,0,0,0,0,0,0,0,0,0,0,0,0,0,0,0,0,0,0,0,0,0,0],"id":7,"left_children":[1,3,5,7,9,11,13,15,17,19,21,23,25,27,29,31,33,35,37,-1,39,41,43,45,47,49,51,53,55,57,59,61,63,65,67,69,71,73,-1,75,77,79,81,83,-1,85,87,89,91,-1,93,-1,95,97,99,101,103,105,107,109,111,-1,-1,-1,-1,-1,-1,-1,-1,-1,-1,-1,-1,-1,-1,-1,-1,-1,-1,-1,-1,-1,-1,-1,-1,-1,-1,-1,-1,-1,-1,-1,-1,-1,-1,-1,-1,-1,-1,-1,-1,-1,-1,-1,-1,-1,-1,-1,-1,-1,-1,-1,-1],"loss_changes":[2.4874326E3,2.6489575E2,1.1363516E3,3.75847E1,5.2413086E1,7.362537E1,3.9663882E2,3.7406769E0,2.5542725E1,1.6794067E1,3.8670044E1,4.9648804E1,4.537916E0,5.199402E0,3.219351E2,4.8980103E0,5.7920017E0,9.952839E0,2.3178024E0,0E0,1.6470215E1,3.652893E1,1.8680344E0,5.827545E0,2.329663E1,3.4084616E0,4.918459E0,3.9931946E0,4.7501564E0,5.8776245E0,2.9049E2,2.4860077E0,7.4782104E0,2.6912498E-1,4.639218E-1,6.961029E0,5.5465393E0,4.80025E0,0E0,1.093457E1,2.3300903E1,9.602898E0,1.9025146E1,2.8606482E0,0E0,2.9237366E0,3.7045145E0,2.639618E0,9.630859E0,0E0,2.5932684E0,0E0,4.8834667E0,2.1708984E0,6.4577255E0,1.1370811E0,5.527156E0,6.67688E0,3.0105934E0,5.5397644E0,2.8747836E2,0E0,0E0,0E0,0E0,0E0,0E0,0E0,0E0,0E0,0E0,0E0,0E0,0E0,0E0,0E0,0E0,0E0,0E0,0E0,0E0,0E0,0E0,0E0,0E0,0E0,0E0,0E0,0E0,0E0,0E0,0E0,0E0,0E0,0E0,0E0,0E0,0E0,0E0,0E0,0E0,0E0,0E0,0E0,0E0,0E0,0E0,0E0,0E0,0E0,0E0,0E0,0E0],"parents":[2147483647,0,0,1,1,2,2,3,3,4,4,5,5,6,6,7,7,8,8,9,9,10,10,11,11,12,12,13,13,14,14,15,15,16,16,17,17,18,18,20,20,21,21,22,22,23,23,24,24,25,25,26,26,27,27,28,28,29,29,30,30,31,31,32,32,33,33,34,34,35,35,36,36,37,37,39,39,40,40,41,41,42,42,43,43,45,45,46,46,47,47,48,48,50,50,52,52,53,53,54,54,55,55,56,56,57,57,58,58,59,59,60,60],"right_children":[2,4,6,8,10,12,14,16,18,20,22,24,26,28,30,32,34,36,38,-1,40,42,44,46,48,50,52,54,56,58,60,62,64,66,68,70,72,74,-1,76,78,80,82,84,-1,86,88,90,92,-1,94,-1,96,98,100,102,104,106,108,110,112,-1,-1,-1,-1,-1,-1,-1,-1,-1,-1,-1,-1,-1,-1,-1,-1,-1,-1,-1,-1,-1,-1,-1,-1,-1,-1,-1,-1,-1,-1,-1,-1,-1,-1,-1,-1,-1,-1,-1,-1,-1,-1,-1,-1,-1,-1,-1,-1,-1,-1,-1,-1],"split_conditions":[6.00001E0,2.00001E0,2.00001E0,2.00001E0,2.00001E0,7.279666E-2,2.00001E0,3.1003262E1,2E0,2.00001E0,2E0,2.00001E0,2.7901567E1,1.071E2,2.00001E0,8.34E1,3.1819828E1,2.3554295E1,2.521364E1,9.425508E-2,9.14E1,2.00001E0,5.78E1,2.9583015E1,2.00001E0,2.091172E1,2.862559E1,2.60384E1,1.119E2,3.0010426E1,2.00001E0,2.00001E0,8.48E1,1.064E2,3.215636E1,1E0,2.7491745E1,6.19E1,7.224569E-2,2.00001E0,2.7219606E1,5.53E1,9.05E1,6.380738E-2,7.713747E-2,1.13E2,1.046E2,7.36E1,9.97E1,3.7281103E-2,2.7373665E1,6.070278E-2,9.62E1,2.417838E1,7.7E1,2.8968676E1,3.0205805E1,2.9503843E1,3.1003262E1,2.7292503E1,2.00001E0,1.8293718E-2,3.6403008E-2,-6.902819E-3,2.2160294E-2,6.599317E-2,3.7571173E-2,2.719807E-2,8.623309E-3,1.8634312E-2,2.8741613E-3,1.3900302E-2,5.4792077E-3,5.6388088E-2,4.218187E-3,3.2434434E-2,5.0266452E-2,9.668801E-3,3.8816597E-2,-1.8914925E-3,2.0660443E-2,3.025992E-2,4.2695116E-2,7.222827E-2,2.5389364E-2,-1.049568E-2,-2.3040961E-2,1.3657929E-2,-5.992316E-3,-1.9663E-2,-2.3311038E-2,-1.6420959E-2,-5.623972E-3,1.18090045E-2,-1.4110987E-2,-2.0703917E-2,3.0454356E-2,3.163696E-2,3.85775E-2,-4.140849E-3,2.8914899E-2,3.4741122E-2,7.32525E-2,-1.1512523E-2,4.4390365E-2,4.305413E-2,1.6446303E-3,8.1542164E-2,4.1919585E-2,4.1021246E-2,5.6168195E-2,3.8953725E-2,-1.560845E-3],"split_indices":[49,2,2,51,51,52,37,46,50,40,50,51,46,45,40,45,46,46,46,0,45,4,45,46,19,46,46,46,45,46,34,10,45,45,46,49,46,45,0,4,46,45,45,52,0,45,45,45,45,0,46,0,45,46,45,46,46,46,46,46,39,0,0,0,0,0,0,0,0,0,0,0,0,0,0,0,0,0,0,0,0,0,0,0,0,0,0,0,0,0,0,0,0,0,0,0,0,0,0,0,0,0,0,0,0,0,0,0,0,0,0,0,0],"split_type":[0,0,0,0,0,0,0,0,0,0,0,0,0,0,0,0,0,0,0,0,0,0,0,0,0,0,0,0,0,0,0,0,0,0,0,0,0,0,0,0,0,0,0,0,0,0,0,0,0,0,0,0,0,0,0,0,0,0,0,0,0,0,0,0,0,0,0,0,0,0,0,0,0,0,0,0,0,0,0,0,0,0,0,0,0,0,0,0,0,0,0,0,0,0,0,0,0,0,0,0,0,0,0,0,0,0,0,0,0,0,0,0,0],"sum_hessian":[5.431514E4,7.6668276E3,4.6648312E4,2.435626E3,5.2312017E3,1.5026608E4,3.1621703E4,5.4909247E2,1.8865336E3,1.2839694E3,3.9472324E3,1.4848652E4,1.779564E2,9.5961017E2,3.0662092E4,5.144471E2,3.464536E1,1.8552589E3,3.127458E1,1.4587082E1,1.2693822E3,3.8897434E3,5.7489143E1,2.449333E3,1.2399319E4,1.4343172E2,3.452468E1,9.1402954E2,4.5580658E1,4.1538E2,3.0246713E4,1.1806352E2,3.9638358E2,1.9033804E1,1.5611556E1,7.816262E2,1.0736327E3,1.9395012E1,1.1879567E1,6.075365E2,6.6184576E2,7.0902655E2,3.1807168E3,1.5382799E1,4.2106342E1,1.830634E3,6.186991E2,2.216214E3,1.0183105E4,1.1590122E1,1.318416E2,9.980706E0,2.4543976E1,5.631181E2,3.5091144E2,2.2784307E1,2.2796352E1,3.8674432E2,2.8635674E1,3.4038757E2,2.9906324E4,2.8202505E1,8.986102E1,2.308371E1,3.7329987E2,1.240265E1,6.6311545E0,5.4801254E0,1.0131431E1,7.6883965E1,7.0474225E2,8.1392126E2,2.5971146E2,1.262097E1,6.7740426E0,1.1335968E2,4.9417682E2,7.857405E1,5.832717E2,5.0670956E1,6.583556E2,2.8284438E3,3.5227304E2,6.6331058E0,8.749694E0,1.7831641E3,4.746996E1,2.4067207E1,5.9463184E2,8.833267E2,1.3328875E3,9.970856E3,2.1224835E2,1.2220378E2,9.637817E0,5.2877936E0,1.9256182E1,3.2794235E2,2.3517575E2,1.520821E1,3.3570322E2,5.3763742E0,1.7407932E1,5.348621E0,1.7447731E1,3.7666913E2,1.00751915E1,1.6360815E1,1.2274859E1,2.4481819E2,9.556938E1,4.4345273E2,2.9462873E4],"tree_param":{"num_deleted":"0","num_feature":"55","num_nodes":"113","size_leaf_vector":"1"}},{"base_weights":[-1.5631816E-3,4.8969755E-1,-8.286195E-2,2.2288911E-1,6.138068E-1,-2.9897624E-1,1.9195443E-2,4.4416916E-1,1.5842162E-1,4.0020093E-1,6.6193473E-1,-3.2711244E-1,-1.6739428E-1,5.75739E-1,1.182802E-3,6.182269E-1,-1.23548605E-1,1.3620745E-1,4.498057E-1,4.4517016E-1,-1.1534561E-2,5.893432E-1,8.045052E-1,-1.7291401E-1,-3.3143818E-1,-4.470808E-1,-1.6105393E-1,5.4461235E-1,7.4124146E-1,8.109528E-1,-1.0372603E-2,7.7377844E-1,4.7645E-1,2.3235737E-1,-3.9857966E-1,2.4606611E-1,7.1718104E-2,5.2977033E-2,3.801447E-1,7.4177116E-1,3.5942066E-1,-1.7326313E-1,6.438517E-1,7.0742154E-1,5.110035E-1,8.928193E-1,5.757336E-1,-2.6253736E-1,5.4223076E-2,-3.350443E-1,-1.4205427E-1,-1.1704689E-1,-6.4786816E-1,-1.4645743E-1,-2.4238922E-1,5.9639037E-1,3.310592E-1,1.0888731E0,6.7730916E-1,7.172538E-1,9.6880096E-1,8.9518785E-1,-2.095157E-2,1.8362895E-2,4.261481E-2,9.124186E-3,2.7912835E-2,3.0794049E-2,-2.7321966E-3,-1.0102079E-2,-3.329468E-2,1.8919988E-2,4.3446827E-4,-1.1982943E-2,6.559506E-3,1.3505417E-2,2.7070994E-2,1.2430989E-2,4.1208886E-2,2.5563E-2,1.3262393E-2,-4.698144E-3,-4.0054917E-2,2.258801E-2,4.9221274E-2,7.9743795E-2,3.4558076E-2,5.7359296E-3,2.9475605E-2,3.550104E-2,5.1722832E-2,4.2543925E-2,1.0841804E-2,-9.489934E-3,-1.6960885E-2,-1.4246592E-3,2.1129861E-2,-1.5252003E-2,-1.7379602E-2,9.300451E-3,-1.0996473E-2,7.658571E-3,-1.7882703E-2,-3.7798263E-2,-1.7138949E-2,-8.0913855E-3,-2.6515448E-3,1.2833156E-2,-1.2743587E-2,2.5402231E-2,3.238725E-2,-1.6990906E-2,1.8678967E-2,2.9983414E-2,7.641529E-2,2.3855908E-2,4.428695E-2,3.773175E-2,1.8502094E-2,6.0468655E-2,4.408672E-2,6.586895E-2,4.245476E-2,3.770339E-2,-1.6408028E-3],"categories":[],"categories_nodes":[],"categories_segments":[],"categories_sizes":[],"default_left":[0,0,0,0,0,0,0,0,0,0,0,0,0,0,0,0,0,0,0,0,0,0,0,0,0,0,0,0,0,0,0,0,0,0,0,0,0,0,0,0,0,0,0,0,0,0,0,0,0,0,0,0,0,0,0,0,0,0,0,0,0,0,0,0,0,0,0,0,0,0,0,0,0,0,0,0,0,0,0,0,0,0,0,0,0,0,0,0,0,0,0,0,0,0,0,0,0,0,0,0,0,0,0,0,0,0,0,0,0,0,0,0,0,0,0,0,0,0,0,0,0,0,0,0,0],"id":8,"left_children":[1,3,5,7,9,11,13,15,17,19,21,23,25,27,29,31,33,35,37,39,41,43,45,47,49,51,53,55,57,59,61,63,65,67,69,71,73,-1,75,77,79,81,83,85,87,89,91,93,95,97,99,101,103,105,107,109,111,113,115,117,119,121,123,-1,-1,-1,-1,-1,-1,-1,-1,-1,-1,-1,-1,-1,-1,-1,-1,-1,-1,-1,-1,-1,-1,-1,-1,-1,-1,-1,-1,-1,-1,-1,-1,-1,-1,-1,-1,-1,-1,-1,-1,-1,-1,-1,-1,-1,-1,-1,-1,-1,-1,-1,-1,-1,-1,-1,-1,-1,-1,-1,-1,-1,-1],"loss_changes":[2.1609773E3,2.5426562E2,1.02394336E3,3.474723E1,5.363611E1,5.5075684E1,3.1612292E2,5.443425E1,1.2182888E1,1.790271E1,4.3794556E1,8.124878E0,4.5834885E0,4.689148E0,2.8583862E2,8.919891E0,1.2809172E1,1.244474E1,5.2701836E0,2.189798E1,1.0303319E1,2.5891174E1,2.8587158E1,6.870927E0,8.100708E0,3.7432566E0,3.0140533E0,9.045197E0,2.6790924E0,5.6615906E0,2.8854318E2,6.04628E0,5.259693E0,6.3365784E0,3.7348938E0,2.0422737E1,2.0583166E1,0E0,2.0085983E0,7.6995697E0,9.5587845E0,3.803679E0,8.142023E-1,1.5193848E1,5.3124695E1,2.6124756E1,3.9708862E1,1.2837067E0,2.9411545E0,4.3016357E0,5.780884E0,1.5514817E0,9.1532326E-1,3.122406E0,2.4905949E0,2.7175598E0,4.844124E0,3.8633194E0,5.1058083E0,3.2710876E0,2.2271118E0,5.649597E0,2.7377438E2,0E0,0E0,0E0,0E0,0E0,0E0,0E0,0E0,0E0,0E0,0E0,0E0,0E0,0E0,0E0,0E0,0E0,0E0,0E0,0E0,0E0,0E0,0E0,0E0,0E0,0E0,0E0,0E0,0E0,0E0,0E0,0E0,0E0,0E0,0E0,0E0,0E0,0E0,0E0,0E0,0E0,0E0,0E0,0E0,0E0,0E0,0E0,0E0,0E0,0E0,0E0,0E0,0E0,0E0,0E0,0E0,0E0,0E0,0E0,0E0,0E0,0E0],"parents":[2147483647,0,0,1,1,2,2,3,3,4,4,5,5,6,6,7,7,8,8,9,9,10,10,11,11,12,12,13,13,14,14,15,15,16,16,17,17,18,18,19,19,20,20,21,21,22,22,23,23,24,24,25,25,26,26,27,27,28,28,29,29,30,30,31,31,32,32,33,33,34,34,35,35,36,36,38,38,39,39,40,40,41,41,42,42,43,43,44,44,45,45,46,46,47,47,48,48,49,49,50,50,51,51,52,52,53,53,54,54,55,55,56,56,57,57,58,58,59,59,60,60,61,61,62,62],"right_children":[2,4,6,8,10,12,14,16,18,20,22,24,26,28,30,32,34,36,38,40,42,44,46,48,50,52,54,56,58,60,62,64,66,68,70,72,74,-1,76,78,80,82,84,86,88,90,92,94,96,98,100,102,104,106,108,110,112,114,116,118,120,122,124,-1,-1,-1,-1,-1,-1,-1,-1,-1,-1,-1,-1,-1,-1,-1,-1,-1,-1,-1,-1,-1,-1,-1,-1,-1,-1,-1,-1,-1,-1,-1,-1,-1,-1,-1,-1,-1,-1,-1,-1,-1,-1,-1,-1,-1,-1,-1,-1,-1,-1,-1,-1,-1,-1,-1,-1,-1,-1,-1,-1,-1,-1],"split_conditions":[6.00001E0,2.00001E0,2.00001E0,2.00001E0,2.00001E0,1.843E2,2.00001E0,1.854E2,1.856E2,1.856E2,1.787E2,1.614E2,7.75E1,1.848E2,2.00001E0,1.834E2,8.9E1,1.691E2,1.862E2,2.00001E0,1.032E2,1.692E2,1.858E2,5.86E1,9.97E1,1.85E2,1.955E2,1.811E2,4E0,1.808E2,2.00001E0,1.635E2,1.838E2,1.862E2,1.86E2,2E0,2E0,5.2977033E-2,1.013E2,7.93E1,1.694E2,1.887E2,1.119E2,2.00001E0,2E0,2.00001E0,1E0,5.22E1,6.64E1,2.00001E0,1.005E2,7.39E1,7.59E1,1.934E2,2.00001E0,1.723E2,1.813E2,8.9E1,1.041E2,8.77E1,1.822E2,1.664E2,2.00001E0,1.8362895E-2,4.261481E-2,9.124186E-3,2.7912835E-2,3.0794049E-2,-2.7321966E-3,-1.0102079E-2,-3.329468E-2,1.8919988E-2,4.3446827E-4,-1.1982943E-2,6.559506E-3,1.3505417E-2,2.7070994E-2,1.2430989E-2,4.1208886E-2,2.5563E-2,1.3262393E-2,-4.698144E-3,-4.0054917E-2,2.258801E-2,4.9221274E-2,7.9743795E-2,3.4558076E-2,5.7359296E-3,2.9475605E-2,3.550104E-2,5.1722832E-2,4.2543925E-2,1.0841804E-2,-9.489934E-3,-1.6960885E-2,-1.4246592E-3,2.1129861E-2,-1.5252003E-2,-1.7379602E-2,9.300451E-3,-1.0996473E-2,7.658571E-3,-1.7882703E-2,-3.7798263E-2,-1.7138949E-2,-8.0913855E-3,-2.6515448E-3,1.2833156E-2,-1.2743587E-2,2.5402231E-2,3.238725E-2,-1.6990906E-2,1.8678967E-2,2.9983414E-2,7.641529E-2,2.3855908E-2,4.428695E-2,3.773175E-2,1.8502094E-2,6.0468655E-2,4.408672E-2,6.586895E-2,4.245476E-2,3.770339E-2,-1.6408028E-3],"split_indices":[49,2,2,51,4,44,37,44,44,44,44,44,45,44,40,44,45,44,44,51,45,44,44,45,45,44,44,44,48,44,34,44,44,44,44,48,48,0,45,45,44,44,45,40,48,3,49,45,45,6,45,45,45,44,38,44,44,45,45,45,44,44,39,0,0,0,0,0,0,0,0,0,0,0,0,0,0,0,0,0,0,0,0,0,0,0,0,0,0,0,0,0,0,0,0,0,0,0,0,0,0,0,0,0,0,0,0,0,0,0,0,0,0,0,0,0,0,0,0,0,0,0,0,0,0],"split_type":[0,0,0,0,0,0,0,0,0,0,0,0,0,0,0,0,0,0,0,0,0,0,0,0,0,0,0,0,0,0,0,0,0,0,0,0,0,0,0,0,0,0,0,0,0,0,0,0,0,0,0,0,0,0,0,0,0,0,0,0,0,0,0,0,0,0,0,0,0,0,0,0,0,0,0,0,0,0,0,0,0,0,0,0,0,0,0,0,0,0,0,0,0,0,0,0,0,0,0,0,0,0,0,0,0,0,0,0,0,0,0,0,0,0,0,0,0,0,0,0,0,0,0,0,0],"sum_hessian":[5.410508E4,7.681766E3,4.6423312E4,2.4397083E3,5.2420576E3,1.4890217E4,3.1533094E4,5.490936E2,1.8906146E3,9.656297E2,4.2764277E3,1.2265909E4,2.6243074E3,9.876084E2,3.0545486E4,4.2018066E2,1.28913E2,1.7580538E3,1.3256087E2,8.7047614E2,9.515354E1,2.8370444E3,1.4393835E3,3.3582568E2,1.1930084E4,5.663213E1,2.5676753E3,8.3488007E2,1.5272836E2,4.2877777E2,3.0116707E4,1.9823161E2,2.2194904E2,5.626196E1,7.265104E1,6.492426E2,1.1088112E3,1.2134961E1,1.2042591E2,1.9350539E2,6.7697076E2,7.691018E1,1.8243364E1,1.1283286E3,1.7087157E3,1.0363951E3,4.0298837E2,2.406963E2,9.512938E1,1.1706409E4,2.2367421E2,2.2020315E1,3.4611816E1,2.1793655E3,3.8830984E2,6.705148E2,1.6436531E2,2.1234442E1,1.3149391E2,2.7254092E2,1.5623685E2,3.4680203E2,2.9769906E4,3.3008667E1,1.6522295E2,4.902217E1,1.7292686E2,2.3591034E1,3.2670925E1,4.2880035E1,2.9771004E1,4.164721E2,2.327705E2,1.7733109E2,9.314801E2,7.317454E1,4.725138E1,2.8280607E1,1.652248E2,2.5744724E2,4.1952353E2,6.930598E1,7.6041985E0,1.3151871E1,5.0914927E0,1.8554546E1,1.109774E3,2.8294855E2,1.4257671E3,4.5507877E2,5.813164E2,2.2733426E2,1.7565411E2,1.25306335E2,1.1538998E2,7.843901E1,1.6690369E1,3.4594558E3,8.246953E3,4.2643257E1,1.8103096E2,1.0543094E1,1.1477221E1,2.4465513E1,1.0146301E1,1.870847E3,3.085184E2,8.99823E0,3.793116E2,2.5048924E2,4.200255E2,9.379817E0,1.549855E2,1.116712E1,1.0067322E1,6.8750305E1,6.274361E1,2.4499144E2,2.7549482E1,3.809287E1,1.1814398E2,3.142055E1,3.1538147E2,4.4792175E2,2.9321984E4],"tree_param":{"num_deleted":"0","num_feature":"55","num_nodes":"125","size_leaf_vector":"1"}},{"base_weights":[2.244561E-3,4.570341E-1,-7.376965E-2,1.880903E-1,5.819086E-1,-2.761576E-1,2.1339368E-2,1.2396254E-1,3.483331E-1,5.227688E-1,7.020986E-1,3.983771E-1,-2.843102E-1,5.759215E-1,3.2606719E-3,2.7224654E-1,2.732503E-2,4.8015195E-1,1.6806121E-1,6.38359E-1,4.4654307E-1,8.3984816E-1,4.7921428E-1,3.0060554E-1,7.123072E-1,-3.108041E-1,-1.6526672E-1,5.32189E-1,8.403506E-1,7.8303665E-1,-7.940154E-3,2.9881263E-1,-1.8681143E-1,-2.9226398E-1,8.916354E-2,5.63671E-1,2.3240264E-1,4.835994E-1,-1.12882465E-1,6.196716E-1,6.488907E-2,4.6984784E-2,5.253646E-1,7.197449E-1,9.918544E-1,6.596887E-1,3.3073118E-1,6.4558524E-1,1.9253357E-1,1.0020671E0,1.1821097E-1,-3.8789272E-1,-2.9014638E-1,7.79166E-2,-1.7432712E-1,4.2300366E-2,5.074394E-1,7.4567005E-2,7.918487E-1,6.993322E-1,9.210362E-1,-4.8686806E-2,1.966599E-1,1.731819E-2,9.747972E-3,-2.1885768E-2,3.7763994E-2,-2.8470948E-3,-2.596859E-2,9.109426E-3,-2.3642753E-3,3.9409168E-2,2.2822257E-2,1.4806608E-2,-1.4009026E-2,3.7645403E-2,2.0426696E-2,8.277669E-3,-1.5829226E-2,7.270405E-2,3.0369947E-2,1.6242912E-2,-6.393271E-3,3.2791067E-2,1.7189777E-2,4.070829E-2,2.5555214E-2,3.4769874E-2,5.3144135E-2,4.3324497E-2,2.6037008E-2,2.9868228E-2,6.0472665E-3,8.26896E-3,3.9989088E-2,-1.575795E-3,1.6701294E-2,6.0706712E-2,3.567217E-2,1.4000419E-2,-3.5091236E-3,-1.2633942E-2,-2.0677442E-2,-7.01565E-3,-1.472183E-2,3.779034E-2,7.206373E-4,-1.3063105E-2,-7.692516E-3,-3.7156008E-3,2.5926048E-2,-2.5478776E-3,4.218426E-2,3.6694814E-2,1.8099904E-2,5.578345E-2,4.152916E-2,3.916676E-2,-2.9111714E-3,-2.3845995E-4,1.2340641E-2],"categories":[],"categories_nodes":[],"categories_segments":[],"categories_sizes":[],"default_left":[0,0,0,0,0,0,0,0,0,0,0,0,0,0,0,1,0,0,0,0,0,0,0,0,0,0,0,0,0,0,0,0,0,0,0,0,0,0,0,0,0,0,0,0,0,0,0,0,0,0,0,0,0,0,0,0,0,0,0,0,0,0,0,0,0,0,0,0,0,0,0,0,0,0,0,0,0,0,0,0,0,0,0,0,0,0,0,0,0,0,0,0,0,0,0,0,0,0,0,0,0,0,0,0,0,0,0,0,0,0,0,0,0,0,0,0,0,0,0,0,0],"id":9,"left_children":[1,3,5,7,9,11,13,15,17,19,21,23,25,27,29,31,33,35,37,39,41,43,45,47,49,51,53,55,57,59,61,63,65,67,69,71,73,75,77,79,-1,81,83,85,87,89,91,93,95,97,99,101,103,105,107,-1,109,-1,111,113,115,117,119,-1,-1,-1,-1,-1,-1,-1,-1,-1,-1,-1,-1,-1,-1,-1,-1,-1,-1,-1,-1,-1,-1,-1,-1,-1,-1,-1,-1,-1,-1,-1,-1,-1,-1,-1,-1,-1,-1,-1,-1,-1,-1,-1,-1,-1,-1,-1,-1,-1,-1,-1,-1,-1,-1,-1,-1,-1,-1],"loss_changes":[1.8717067E3,2.602832E2,8.9293195E2,2.5235619E1,3.7265747E1,8.166858E1,3.1641315E2,2.519069E1,1.6613914E1,3.1014465E1,5.3114563E1,5.234564E0,4.616565E1,1.1074127E1,2.669542E2,8.515858E0,2.1088062E1,8.2547E0,2.6496002E1,1.656305E1,6.749811E1,1.8929382E1,1.768599E1,4.9868584E0,7.0130863E0,1.8973267E1,5.895935E0,6.231903E0,3.2288208E0,4.3554688E0,2.5121255E2,3.1727295E0,9.4463E0,9.216934E0,1.1352746E1,6.9198303E0,3.4762874E0,2.5362892E0,9.047688E0,1.3170837E1,0E0,1.7258589E1,4.21893E1,1.1496521E1,9.205231E0,8.185638E0,2.0543442E1,2.25774E0,3.3649912E0,8.299885E-1,4.6819285E-1,8.672028E0,6.0372314E0,4.147013E0,4.5421906E0,0E0,5.179428E0,0E0,5.814636E0,2.923935E0,1.8946533E0,1.9943211E2,5.055739E1,0E0,0E0,0E0,0E0,0E0,0E0,0E0,0E0,0E0,0E0,0E0,0E0,0E0,0E0,0E0,0E0,0E0,0E0,0E0,0E0,0E0,0E0,0E0,0E0,0E0,0E0,0E0,0E0,0E0,0E0,0E0,0E0,0E0,0E0,0E0,0E0,0E0,0E0,0E0,0E0,0E0,0E0,0E0,0E0,0E0,0E0,0E0,0E0,0E0,0E0,0E0,0E0,0E0,0E0,0E0,0E0,0E0,0E0],"parents":[2147483647,0,0,1,1,2,2,3,3,4,4,5,5,6,6,7,7,8,8,9,9,10,10,11,11,12,12,13,13,14,14,15,15,16,16,17,17,18,18,19,19,20,20,21,21,22,22,23,23,24,24,25,25,26,26,27,27,28,28,29,29,30,30,31,31,32,32,33,33,34,34,35,35,36,36,37,37,38,38,39,39,41,41,42,42,43,43,44,44,45,45,46,46,47,47,48,48,49,49,50,50,51,51,52,52,53,53,54,54,56,56,58,58,59,59,60,60,61,61,62,62],"right_children":[2,4,6,8,10,12,14,16,18,20,22,24,26,28,30,32,34,36,38,40,42,44,46,48,50,52,54,56,58,60,62,64,66,68,70,72,74,76,78,80,-1,82,84,86,88,90,92,94,96,98,100,102,104,106,108,-1,110,-1,112,114,116,118,120,-1,-1,-1,-1,-1,-1,-1,-1,-1,-1,-1,-1,-1,-1,-1,-1,-1,-1,-1,-1,-1,-1,-1,-1,-1,-1,-1,-1,-1,-1,-1,-1,-1,-1,-1,-1,-1,-1,-1,-1,-1,-1,-1,-1,-1,-1,-1,-1,-1,-1,-1,-1,-1,-1,-1,-1,-1,-1],"split_conditions":[6.00001E0,2.00001E0,2.00001E0,1.798E2,1.788E2,2.00001E0,2.00001E0,1.691E2,1.852E2,1.692E2,1.852E2,1.829E2,1.841E2,1.858E2,2.00001E0,2E0,2E0,6.1954733E-2,1E0,2E0,2E0,6.417107E-2,1E0,1.709E2,1.896E2,5.8567952E-2,5.721676E-2,1.648E2,4E0,1.808E2,1.856E2,2E0,1.689E2,1.697E2,1.773E2,1.829E2,2.00001E0,1.865E2,1.858E2,2.00001E0,6.488907E-2,2.00001E0,1.771E2,1.84E2,1E0,2.00001E0,1.858E2,1.635E2,1.745E2,4E0,1.938E2,5.721676E-2,1.614E2,1.847E2,5.8567952E-2,4.2300366E-2,1.655E2,7.4567005E-2,1.87E2,1.796E2,1.826E2,2.00001E0,2.00001E0,1.731819E-2,9.747972E-3,-2.1885768E-2,3.7763994E-2,-2.8470948E-3,-2.596859E-2,9.109426E-3,-2.3642753E-3,3.9409168E-2,2.2822257E-2,1.4806608E-2,-1.4009026E-2,3.7645403E-2,2.0426696E-2,8.277669E-3,-1.5829226E-2,7.270405E-2,3.0369947E-2,1.6242912E-2,-6.393271E-3,3.2791067E-2,1.7189777E-2,4.070829E-2,2.5555214E-2,3.4769874E-2,5.3144135E-2,4.3324497E-2,2.6037008E-2,2.9868228E-2,6.0472665E-3,8.26896E-3,3.9989088E-2,-1.575795E-3,1.6701294E-2,6.0706712E-2,3.567217E-2,1.4000419E-2,-3.5091236E-3,-1.2633942E-2,-2.0677442E-2,-7.01565E-3,-1.472183E-2,3.779034E-2,7.206373E-4,-1.3063105E-2,-7.692516E-3,-3.7156008E-3,2.5926048E-2,-2.5478776E-3,4.218426E-2,3.6694814E-2,1.8099904E-2,5.578345E-2,4.152916E-2,3.916676E-2,-2.9111714E-3,-2.3845995E-4,1.2340641E-2],"split_indices":[49,2,2,44,44,26,37,44,44,44,44,44,44,44,40,48,48,53,49,49,48,53,49,44,44,53,53,44,48,44,44,48,44,44,44,44,5,44,44,40,0,3,44,44,49,0,44,44,44,48,44,53,44,44,53,0,44,0,44,44,44,34,4,0,0,0,0,0,0,0,0,0,0,0,0,0,0,0,0,0,0,0,0,0,0,0,0,0,0,0,0,0,0,0,0,0,0,0,0,0,0,0,0,0,0,0,0,0,0,0,0,0,0,0,0,0,0,0,0,0,0],"split_type":[0,0,0,0,0,0,0,0,0,0,0,0,0,0,0,0,0,0,0,0,0,0,0,0,0,0,0,0,0,0,0,0,0,0,0,0,0,0,0,0,0,0,0,0,0,0,0,0,0,0,0,0,0,0,0,0,0,0,0,0,0,0,0,0,0,0,0,0,0,0,0,0,0,0,0,0,0,0,0,0,0,0,0,0,0,0,0,0,0,0,0,0,0,0,0,0,0,0,0,0,0,0,0,0,0,0,0,0,0,0,0,0,0,0,0,0,0,0,0,0,0],"sum_hessian":[5.41398E4,7.752419E3,4.6387383E4,2.4589822E3,5.2934365E3,1.4829319E4,3.1558062E4,1.7574426E3,7.0153955E2,3.5513396E3,1.742097E3,1.7651955E2,1.46528E4,9.9530255E2,3.056276E4,6.927087E2,1.064734E3,4.042669E2,2.9727264E2,1.4083354E3,2.1430042E3,1.0749658E3,6.671312E2,1.3609209E2,4.042746E1,1.1984059E4,2.6687415E3,8.566402E2,1.3866237E2,4.3181583E2,3.0130945E4,6.55144E2,3.756468E1,1.720147E2,8.927193E2,3.013899E2,1.0287702E2,1.3967603E2,1.5759663E2,1.3714105E3,3.692488E1,3.5336072E2,1.7896436E3,6.037028E2,4.7126306E2,2.9957214E2,3.6755908E2,3.1277287E1,1.048148E2,2.67123E1,1.3715158E1,2.5289543E3,9.4551045E3,9.558625E1,2.573155E3,6.0195526E1,7.964447E2,7.551991E0,1.3111037E2,2.7256024E2,1.5925555E2,2.5127498E4,5.0034473E3,4.4778302E2,2.07361E2,3.008707E1,7.4776073E0,8.509384E1,8.692086E1,5.306263E2,3.62093E2,9.536386E1,2.0602603E2,9.1876305E1,1.1000714E1,2.847776E1,1.11198265E2,6.666331E1,9.093332E1,1.8175707E1,1.3532349E3,1.3614307E2,2.1721765E2,1.0398809E3,7.497627E2,4.1361716E2,1.9008566E2,9.317227E1,3.780908E2,1.1828659E2,1.8128555E2,1.6103699E2,2.065221E2,8.105932E0,2.3171354E1,4.0872116E1,6.3942684E1,1.3549865E1,1.3162435E1,7.1167793E0,6.5983796E0,4.0505655E2,2.123898E3,2.641331E2,9.190972E3,7.253621E0,8.833263E1,4.8830054E2,2.0848545E3,1.4780909E1,7.8166376E2,7.5976396E0,1.2351273E2,2.4616228E2,2.6397972E1,4.693297E1,1.1232259E2,2.838276E2,2.484367E4,9.976184E2,4.0058286E3],"tree_param":{"num_deleted":"0","num_feature":"55","num_nodes":"121","size_leaf_vector":"1"}},{"base_weights":[1.1327248E-3,4.363999E-1,-7.218546E-2,2.0709273E-1,5.424158E-1,-2.6793092E-1,1.9110532E-2,1.3487318E-1,3.8492718E-1,6.4771575E-1,4.7911593E-1,2.7570304E-1,-2.7451673E-1,5.2317876E-1,2.578107E-3,2.5972515E-1,4.9092893E-2,5.2791154E-1,2.1052092E-1,4.791296E-1,7.4050975E-1,4.7167116E-1,1.1156005E0,1.637451E-1,5.225371E-1,-2.9807568E-1,-1.427365E-1,5.0461745E-1,8.163001E-1,9.647511E-1,-5.005276E-3,1.20307796E-1,3.265568E-1,-2.7229238E-1,1.05950505E-1,2.1593738E-1,5.777112E-1,3.9714795E-1,5.5671327E-2,7.272079E-1,2.9266712E-1,7.805682E-1,5.4083776E-1,4.1083542E-1,5.326301E-1,1.231232E0,7.923859E-1,2.2938849E-1,-3.5130087E-2,6.9947535E-1,1.2793861E-1,-3.959717E-1,-2.7677938E-1,1.5091532E-1,-1.6180202E-1,1.0343777E0,4.95242E-1,6.09271E-2,6.789253E-1,9.146486E-1,7.9155646E-2,-4.1638378E-2,1.7927307E-1,1.3026813E-2,-9.415041E-3,3.5967253E-2,1.3931905E-2,-8.455705E-3,-2.6244288E-2,1.0087623E-2,-4.3730982E-4,2.9479286E-2,-1.346866E-3,4.3209445E-2,2.4700249E-2,4.9719084E-2,1.7761724E-2,1.4439911E-2,-9.1271205E-3,3.9225135E-2,8.03709E-3,-5.945096E-3,2.335019E-2,3.3602506E-2,4.9674284E-2,4.200746E-2,1.1902227E-2,2.3154095E-2,4.3977047E-3,3.0081222E-2,2.0598123E-2,7.255372E-2,4.6230268E-2,-3.048433E-3,6.758255E-2,4.8020496E-3,2.6158383E-2,2.613005E-2,7.022005E-2,-6.9188587E-3,1.6877443E-2,-2.0157201E-2,-7.6761E-3,-1.3897282E-2,1.8208584E-2,-2.580273E-2,1.5625652E-2,-1.2837114E-2,-7.0299082E-3,6.730481E-2,2.2846987E-2,1.9310758E-2,2.660088E-2,1.9201664E-2,4.168078E-2,4.9886864E-2,2.6027208E-2,5.123366E-2,-2.3858896E-3,4.7245156E-2,8.411816E-3],"categories":[],"categories_nodes":[],"categories_segments":[],"categories_sizes":[],"default_left":[0,0,0,0,0,0,0,0,0,0,0,0,0,0,0,0,0,0,0,0,0,0,0,0,0,0,0,0,0,0,0,0,0,0,0,0,0,0,0,0,0,0,0,0,0,0,0,0,0,0,0,0,1,0,0,0,0,0,0,0,0,0,0,0,0,0,0,0,0,0,0,0,0,0,0,0,0,0,0,0,0,0,0,0,0,0,0,0,0,0,0,0,0,0,0,0,0,0,0,0,0,0,0,0,0,0,0,0,0,0,0,0,0,0,0,0,0,0,0,0,0],"id":10,"left_children":[1,3,5,7,9,11,13,15,17,19,21,23,25,27,29,31,33,35,37,39,41,43,45,47,49,51,53,55,57,59,61,63,65,67,69,71,73,75,77,79,81,83,85,87,89,91,93,95,-1,97,99,101,103,105,107,109,111,-1,113,115,-1,117,119,-1,-1,-1,-1,-1,-1,-1,-1,-1,-1,-1,-1,-1,-1,-1,-1,-1,-1,-1,-1,-1,-1,-1,-1,-1,-1,-1,-1,-1,-1,-1,-1,-1,-1,-1,-1,-1,-1,-1,-1,-1,-1,-1,-1,-1,-1,-1,-1,-1,-1,-1,-1,-1,-1,-1,-1,-1,-1],"loss_changes":[1.728123E3,1.8966467E2,8.282191E2,3.1666954E1,3.526831E1,5.285022E1,2.6337997E2,1.8814743E1,1.7663063E1,3.0951355E1,1.5288818E1,4.8039703E0,4.5174316E1,5.0487366E0,2.2329735E2,6.629238E0,1.90926E1,5.9498367E0,9.30533E0,3.278189E1,9.887207E0,1.202179E1,4.391632E-1,7.1663246E0,3.7333984E0,2.5647705E1,1.240176E1,4.1888123E0,2.3860168E0,5.9662933E0,2.0498712E2,1.0153688E1,8.894413E0,4.0056963E0,9.750016E0,5.045143E0,7.6441727E0,3.3064232E0,9.913345E0,9.785812E0,2.9393818E1,2.4084534E1,1.961425E1,2.7901733E1,1.3450073E1,4.1601944E-1,6.1816673E0,4.4648967E0,0E0,3.9515438E0,1.0612676E0,3.7726135E0,7.688965E0,1.4744312E1,4.144058E0,2.1822758E0,3.5312805E0,0E0,1.7602367E0,6.8072968E0,0E0,1.6425087E2,4.239055E1,0E0,0E0,0E0,0E0,0E0,0E0,0E0,0E0,0E0,0E0,0E0,0E0,0E0,0E0,0E0,0E0,0E0,0E0,0E0,0E0,0E0,0E0,0E0,0E0,0E0,0E0,0E0,0E0,0E0,0E0,0E0,0E0,0E0,0E0,0E0,0E0,0E0,0E0,0E0,0E0,0E0,0E0,0E0,0E0,0E0,0E0,0E0,0E0,0E0,0E0,0E0,0E0,0E0,0E0,0E0,0E0,0E0,0E0],"parents":[2147483647,0,0,1,1,2,2,3,3,4,4,5,5,6,6,7,7,8,8,9,9,10,10,11,11,12,12,13,13,14,14,15,15,16,16,17,17,18,18,19,19,20,20,21,21,22,22,23,23,24,24,25,25,26,26,27,27,28,28,29,29,30,30,31,31,32,32,33,33,34,34,35,35,36,36,37,37,38,38,39,39,40,40,41,41,42,42,43,43,44,44,45,45,46,46,47,47,49,49,50,50,51,51,52,52,53,53,54,54,55,55,56,56,58,58,59,59,61,61,62,62],"right_children":[2,4,6,8,10,12,14,16,18,20,22,24,26,28,30,32,34,36,38,40,42,44,46,48,50,52,54,56,58,60,62,64,66,68,70,72,74,76,78,80,82,84,86,88,90,92,94,96,-1,98,100,102,104,106,108,110,112,-1,114,116,-1,118,120,-1,-1,-1,-1,-1,-1,-1,-1,-1,-1,-1,-1,-1,-1,-1,-1,-1,-1,-1,-1,-1,-1,-1,-1,-1,-1,-1,-1,-1,-1,-1,-1,-1,-1,-1,-1,-1,-1,-1,-1,-1,-1,-1,-1,-1,-1,-1,-1,-1,-1,-1,-1,-1,-1,-1,-1,-1,-1],"split_conditions":[6.00001E0,2.00001E0,2.00001E0,1.796E2,2.00001E0,2.00001E0,2.00001E0,1.692E2,1.85E2,2.3795551E1,2E0,1.814E2,1.856E2,3.0205805E1,2.00001E0,2E0,2E0,8.11E1,4E0,1.692E2,1.854E2,3E0,1.745E2,2.8734673E1,1.887E2,2.00001E0,4E0,1.582E2,3.0564285E1,3.0010426E1,1.856E2,1.619E2,5.74E1,1.701E2,1.771E2,7.59E1,1.826E2,-1E0,2.6370884E1,6.59E1,2E0,4E0,4E0,1.771E2,1.84E2,6.209762E-2,2.6401987E1,2.5612059E1,-3.5130087E-2,1.027E2,2.777438E1,4E0,4E0,8.03E1,2.00001E0,2.27143E1,1.723E2,6.09271E-2,1.833E2,2.7491745E1,7.9155646E-2,2.00001E0,2.00001E0,1.3026813E-2,-9.415041E-3,3.5967253E-2,1.3931905E-2,-8.455705E-3,-2.6244288E-2,1.0087623E-2,-4.3730982E-4,2.9479286E-2,-1.346866E-3,4.3209445E-2,2.4700249E-2,4.9719084E-2,1.7761724E-2,1.4439911E-2,-9.1271205E-3,3.9225135E-2,8.03709E-3,-5.945096E-3,2.335019E-2,3.3602506E-2,4.9674284E-2,4.200746E-2,1.1902227E-2,2.3154095E-2,4.3977047E-3,3.0081222E-2,2.0598123E-2,7.255372E-2,4.6230268E-2,-3.048433E-3,6.758255E-2,4.8020496E-3,2.6158383E-2,2.613005E-2,7.022005E-2,-6.9188587E-3,1.6877443E-2,-2.0157201E-2,-7.6761E-3,-1.3897282E-2,1.8208584E-2,-2.580273E-2,1.5625652E-2,-1.2837114E-2,-7.0299082E-3,6.730481E-2,2.2846987E-2,1.9310758E-2,2.660088E-2,1.9201664E-2,4.168078E-2,4.9886864E-2,2.6027208E-2,5.123366E-2,-2.3858896E-3,4.7245156E-2,8.411816E-3],"split_indices":[49,2,2,44,0,26,37,44,44,46,50,44,44,46,30,47,48,45,47,44,44,48,44,46,44,19,47,44,46,46,44,44,45,44,44,45,44,49,46,45,48,47,47,44,44,52,46,46,0,45,46,47,47,45,19,46,44,0,44,46,0,24,40,0,0,0,0,0,0,0,0,0,0,0,0,0,0,0,0,0,0,0,0,0,0,0,0,0,0,0,0,0,0,0,0,0,0,0,0,0,0,0,0,0,0,0,0,0,0,0,0,0,0,0,0,0,0,0,0,0,0],"split_type":[0,0,0,0,0,0,0,0,0,0,0,0,0,0,0,0,0,0,0,0,0,0,0,0,0,0,0,0,0,0,0,0,0,0,0,0,0,0,0,0,0,0,0,0,0,0,0,0,0,0,0,0,0,0,0,0,0,0,0,0,0,0,0,0,0,0,0,0,0,0,0,0,0,0,0,0,0,0,0,0,0,0,0,0,0,0,0,0,0,0,0,0,0,0,0,0,0,0,0,0,0,0,0,0,0,0,0,0,0,0,0,0,0,0,0,0,0,0,0,0,0],"sum_hessian":[5.4149082E4,7.805473E3,4.634361E4,2.4687163E3,5.336757E3,1.4739366E4,3.1604242E4,1.7569625E3,7.117538E2,2.00019E3,3.336567E3,1.7593239E2,1.4563434E4,1.00266516E3,3.0601576E4,7.146997E2,1.0422628E3,3.8999518E2,3.217586E2,7.1228656E2,1.2879033E3,3.2997122E3,3.6854805E1,1.2217855E2,5.3753834E1,1.2353652E4,2.2097817E3,9.4551404E2,5.715116E1,2.3831377E2,3.0363264E4,2.3249422E2,4.822055E2,1.5610376E2,8.8615906E2,5.441902E1,3.3557614E2,1.451985E2,1.765601E2,3.0439944E2,4.0788712E2,1.0702744E3,2.1762897E2,1.6553984E3,1.6443137E3,2.5074833E1,1.1779974E1,1.1425652E2,7.92203E0,3.657911E1,1.7174723E1,2.2041067E3,1.0149545E4,1.3430275E2,2.075479E3,1.4541051E1,9.3097296E2,1.2545872E1,4.460529E1,2.2274507E2,1.5568693E1,2.5328857E4,5.034406E3,1.5996402E2,7.253019E1,5.09074E1,4.312981E2,1.1201702E2,4.408674E1,4.824376E2,4.0372144E2,2.0875607E1,3.3543415E1,7.377235E1,2.618038E2,8.031494E0,1.37167E2,8.912547E1,8.743462E1,2.7608966E2,2.8309774E1,1.2146173E2,2.8642538E2,7.116981E2,3.5857623E2,1.0855126E2,1.09077705E2,1.4244667E3,2.3093176E2,1.0436168E3,6.0069684E2,1.2430294E1,1.2644539E1,5.0165124E0,6.7634616E0,7.949868E1,3.4757843E1,3.0634022E1,5.9450874E0,7.713868E0,9.460855E0,2.1401333E3,6.397351E1,1.0131676E4,1.78692E1,2.5765621E1,1.08537125E2,3.76882E2,1.698597E3,8.578801E0,5.96225E0,2.3771942E2,6.9325354E2,1.6545862E1,2.8059425E1,1.8269583E2,4.004925E1,1.4264006E2,2.5186217E4,7.0338524E1,4.9640674E3],"tree_param":{"num_deleted":"0","num_feature":"55","num_nodes":"121","size_leaf_vector":"1"}},{"base_weights":[-8.625227E-4,4.1386116E-1,-7.150761E-2,2.0274664E-1,5.100644E-1,-2.6137295E-1,1.654116E-2,1.3334055E-1,3.4597594E-1,5.012565E-1,1.2225354E0,-2.896263E-1,-1.3658632E-1,3.621165E-1,-7.871194E-3,1.7773323E-1,-1.0846956E-1,4.5113787E-1,1.6254017E-1,5.96918E-1,4.4320148E-1,9.8697263E-1,7.480277E-2,1.89236E-1,-2.954248E-1,5.300008E-1,-1.4536034E-1,5.9596455E-1,-1.4019313E-2,7.7391714E-1,-1.7356504E-2,9.518411E-2,3.6387143E-1,-5.836952E-1,3.1737474E-1,4.7499505E-1,-4.050304E-1,-3.695442E-3,3.6238045E-1,4.438445E-1,6.809812E-1,1.1517098E0,4.3765998E-1,1.1061059E0,2.0947004E-2,1.38543E-1,5.517534E-2,-3.8180894E-1,-2.7681684E-1,6.9266176E-1,-8.79061E-3,-5.0532866E-1,-1.3627556E-1,1.029807E0,5.2984774E-1,-3.976753E-2,6.9608724E-1,6.7856425E-1,1.0205E0,9.0190846E-1,-2.5226727E-2,9.995282E-3,-5.409498E-3,2.1188535E-2,-1.3407354E-2,-1.6653953E-2,-4.1256137E-2,3.0437937E-2,5.7436777E-3,-2.7186675E-2,2.4430105E-2,-2.0149671E-3,-4.0778883E-2,7.3357285E-3,-9.177458E-3,2.5745189E-2,1.12563325E-2,3.202884E-2,1.5074966E-2,3.6174264E-2,2.0237032E-2,7.08197E-3,7.5331464E-2,1.8700676E-2,2.5027553E-2,3.7967708E-2,7.0052564E-2,9.723709E-3,-2.1463292E-2,-4.6189148E-2,-1.8912805E-2,-1.4093692E-2,-6.2325164E-3,1.8594688E-2,7.107282E-2,-1.4198511E-2,-3.5241343E-2,-2.7751275E-3,-8.038165E-3,4.627983E-2,6.5097935E-2,2.4562014E-2,3.7466187E-2,3.4801733E-2,-2.68236E-3,6.2743865E-2,1.648805E-2,5.681866E-2,3.0069128E-2,2.3880549E-2,5.599452E-2,4.1691788E-2,6.385144E-2,3.7375677E-3,-4.469669E-3],"categories":[],"categories_nodes":[],"categories_segments":[],"categories_sizes":[],"default_left":[0,0,0,0,0,0,0,0,0,0,0,0,0,0,0,0,0,0,0,0,0,0,0,0,0,0,0,0,0,0,0,0,0,0,0,0,0,0,0,0,0,0,0,0,0,0,0,0,0,0,0,0,0,0,0,0,0,0,0,0,0,0,0,0,0,0,0,0,0,0,0,0,0,0,0,0,0,0,0,0,0,0,0,0,0,0,0,0,0,0,0,0,0,0,0,0,0,0,0,0,0,0,0,0,0,0,0,0,0,0,0,0,0,0,0],"id":11,"left_children":[1,3,5,7,9,11,13,15,17,19,21,23,25,27,29,31,33,35,37,39,41,43,-1,45,47,49,51,53,55,57,59,61,63,65,67,69,71,73,75,77,79,81,83,85,-1,87,-1,89,91,93,-1,95,97,99,101,103,105,107,109,111,113,-1,-1,-1,-1,-1,-1,-1,-1,-1,-1,-1,-1,-1,-1,-1,-1,-1,-1,-1,-1,-1,-1,-1,-1,-1,-1,-1,-1,-1,-1,-1,-1,-1,-1,-1,-1,-1,-1,-1,-1,-1,-1,-1,-1,-1,-1,-1,-1,-1,-1,-1,-1,-1,-1],"loss_changes":[1.5829114E3,1.5960718E2,7.717455E2,2.4441696E1,3.3282715E1,5.152545E1,2.660772E2,1.7848345E1,1.5425064E1,2.9375732E1,2.728447E0,3.3166992E1,1.5880123E1,1.8305261E2,2.1846811E2,2.1533298E1,5.2446114E1,1.061158E1,9.778879E0,2.5598267E1,1.2551636E1,2.1083717E0,0E0,6.4876018E0,1.883374E1,4.1766443E0,8.655102E0,3.626346E1,1.4632469E1,7.6111603E0,2.1060678E2,2.076049E1,1.642612E1,7.130863E0,8.004675E0,7.1513367E0,2.118646E0,4.400117E0,2.6822166E0,1.986882E1,1.4940491E1,8.818298E0,1.3026367E1,2.0866547E0,0E0,4.430986E0,0E0,3.6664734E0,7.42749E0,6.2288494E0,0E0,2.683529E0,5.1404457E0,3.5778198E0,9.08493E0,7.9192004E0,5.318574E0,8.420967E0,4.6720047E0,5.2452393E0,1.8515685E2,0E0,0E0,0E0,0E0,0E0,0E0,0E0,0E0,0E0,0E0,0E0,0E0,0E0,0E0,0E0,0E0,0E0,0E0,0E0,0E0,0E0,0E0,0E0,0E0,0E0,0E0,0E0,0E0,0E0,0E0,0E0,0E0,0E0,0E0,0E0,0E0,0E0,0E0,0E0,0E0,0E0,0E0,0E0,0E0,0E0,0E0,0E0,0E0,0E0,0E0,0E0,0E0,0E0,0E0],"parents":[2147483647,0,0,1,1,2,2,3,3,4,4,5,5,6,6,7,7,8,8,9,9,10,10,11,11,12,12,13,13,14,14,15,15,16,16,17,17,18,18,19,19,20,20,21,21,23,23,24,24,25,25,26,26,27,27,28,28,29,29,30,30,31,31,32,32,33,33,34,34,35,35,36,36,37,37,38,38,39,39,40,40,41,41,42,42,43,43,45,45,47,47,48,48,49,49,51,51,52,52,53,53,54,54,55,55,56,56,57,57,58,58,59,59,60,60],"right_children":[2,4,6,8,10,12,14,16,18,20,22,24,26,28,30,32,34,36,38,40,42,44,-1,46,48,50,52,54,56,58,60,62,64,66,68,70,72,74,76,78,80,82,84,86,-1,88,-1,90,92,94,-1,96,98,100,102,104,106,108,110,112,114,-1,-1,-1,-1,-1,-1,-1,-1,-1,-1,-1,-1,-1,-1,-1,-1,-1,-1,-1,-1,-1,-1,-1,-1,-1,-1,-1,-1,-1,-1,-1,-1,-1,-1,-1,-1,-1,-1,-1,-1,-1,-1,-1,-1,-1,-1,-1,-1,-1,-1,-1,-1,-1,-1],"split_conditions":[6.00001E0,2.00001E0,2.00001E0,1.785E2,2E0,1.841E2,2.00001E0,1.773E2,1.852E2,2.00001E0,1.685E2,2.00001E0,2.00001E0,6.1062254E-2,2.00001E0,3E0,3E0,6.388996E-2,4E0,2.3795551E1,2.00001E0,6.3E1,7.480277E-2,1.829E2,2.00001E0,1.938E2,7.75E1,2.00001E0,1.1E2,1.826E2,2.00001E0,1.691E2,8.48E1,1.777E2,2.5762981E1,1.9973581E1,1.836E2,1.86E2,6.1737362E-2,1.692E2,1.858E2,1E0,3E0,2.2499771E1,2.0947004E-2,2.862559E1,5.517534E-2,4.76E1,3.0010426E1,1.041E2,-8.79061E-3,1.85E2,2.00001E0,1.82E2,1.858E2,1.593E2,3.0700216E1,1.679E2,2.4049768E1,4E0,2.00001E0,9.995282E-3,-5.409498E-3,2.1188535E-2,-1.3407354E-2,-1.6653953E-2,-4.1256137E-2,3.0437937E-2,5.7436777E-3,-2.7186675E-2,2.4430105E-2,-2.0149671E-3,-4.0778883E-2,7.3357285E-3,-9.177458E-3,2.5745189E-2,1.12563325E-2,3.202884E-2,1.5074966E-2,3.6174264E-2,2.0237032E-2,7.08197E-3,7.5331464E-2,1.8700676E-2,2.5027553E-2,3.7967708E-2,7.0052564E-2,9.723709E-3,-2.1463292E-2,-4.6189148E-2,-1.8912805E-2,-1.4093692E-2,-6.2325164E-3,1.8594688E-2,7.107282E-2,-1.4198511E-2,-3.5241343E-2,-2.7751275E-3,-8.038165E-3,4.627983E-2,6.5097935E-2,2.4562014E-2,3.7466187E-2,3.4801733E-2,-2.68236E-3,6.2743865E-2,1.648805E-2,5.681866E-2,3.0069128E-2,2.3880549E-2,5.599452E-2,4.1691788E-2,6.385144E-2,3.7375677E-3,-4.469669E-3],"split_indices":[49,2,2,44,50,44,1,44,44,0,44,26,26,52,34,47,48,52,48,46,24,45,0,44,19,44,45,24,45,44,30,44,45,44,46,46,44,44,52,44,44,49,48,46,0,46,0,45,46,45,0,44,10,44,44,44,46,44,46,47,0,0,0,0,0,0,0,0,0,0,0,0,0,0,0,0,0,0,0,0,0,0,0,0,0,0,0,0,0,0,0,0,0,0,0,0,0,0,0,0,0,0,0,0,0,0,0,0,0,0,0,0,0,0,0],"split_type":[0,0,0,0,0,0,0,0,0,0,0,0,0,0,0,0,0,0,0,0,0,0,0,0,0,0,0,0,0,0,0,0,0,0,0,0,0,0,0,0,0,0,0,0,0,0,0,0,0,0,0,0,0,0,0,0,0,0,0,0,0,0,0,0,0,0,0,0,0,0,0,0,0,0,0,0,0,0,0,0,0,0,0,0,0,0,0,0,0,0,0,0,0,0,0,0,0,0,0,0,0,0,0,0,0,0,0,0,0,0,0,0,0,0,0],"sum_hessian":[5.40256E4,7.862682E3,4.616292E4,2.46232E3,5.4003623E3,1.4624718E4,3.1538203E4,1.6598973E3,8.024226E2,5.3360986E3,6.426373E1,1.192371E4,2.7010076E3,2.0800264E3,2.9458178E4,1.4026559E3,2.5724142E2,5.0910074E2,2.9332184E2,2.0118115E3,3.324287E3,3.7003635E1,2.7260101E1,1.4227711E2,1.1781433E4,3.4318604E1,2.666689E3,1.2822511E3,7.9777515E2,3.5216077E2,2.9106016E4,9.727633E2,4.298926E2,1.21396736E2,1.358447E2,4.9573233E2,1.3368392E1,1.6065977E2,1.3266208E2,7.1539874E2,1.2964128E3,2.4193462E1,3.3000935E3,2.980532E1,7.198315E0,1.3589383E2,6.383287E0,2.0845852E3,9.696848E3,2.7906038E1,6.4125643E0,6.429981E1,2.6023892E3,1.6764299E2,1.114608E3,7.707713E2,2.70039E1,2.5666214E2,9.549863E1,2.4610953E2,2.8859906E4,6.421329E2,3.3063046E2,3.929778E2,3.69148E1,6.0732464E1,6.0664272E1,5.487602E1,8.096868E1,6.020661E0,4.8971167E2,7.6607366E0,5.707655E0,8.7591805E1,7.306796E1,6.153256E1,7.1129524E1,2.9885605E2,4.165427E2,1.1221353E3,1.7427759E2,6.6544724E0,1.753899E1,1.6436487E3,1.6564448E3,1.53425045E1,1.4462815E1,1.2430668E2,1.1587149E1,1.1889365E1,2.0726958E3,9.384128E3,3.12719E2,2.0426086E1,7.47995E0,3.1628736E1,3.2671078E1,6.061765E2,1.9962126E3,1.24406975E2,4.3236008E1,9.506244E2,1.639837E2,1.3360194E1,7.574111E2,9.7324915E0,1.7271408E1,3.5048126E1,2.2161401E2,1.5676434E1,7.98222E1,2.1103587E2,3.5073643E1,1.1281708E4,1.75782E4],"tree_param":{"num_deleted":"0","num_feature":"55","num_nodes":"115","size_leaf_vector":"1"}},{"base_weights":[-3.5151886E-3,3.9268917E-1,-7.1105555E-2,1.7737551E-1,4.916217E-1,-2.5317422E-1,1.2468393E-2,1.3244742E-1,3.3235818E-1,3.1435177E-1,5.313179E-1,2.5198907E-1,-2.592436E-1,-1.7883919E-1,5.6870192E-2,5.796957E-2,1.2495447E-1,2.5442156E-1,4.5421293E-1,2.6693225E-1,6.850753E-1,4.5534408E-1,6.047278E-1,2.2006716E-1,3.8784154E-2,-2.7845597E-1,-1.4751898E-1,-2.0990887E-1,-4.2673964E-2,4.2804542E-1,3.4925353E-2,5.0160844E-2,1.8035416E-1,3.3459628E-1,4.025546E-2,7.943874E-1,2.883615E-1,9.016344E-2,3.103689E-1,1.860028E-1,7.395533E-1,6.974328E-2,4.7224244E-1,5.259352E-1,6.699759E-1,2.707842E-1,-2.7859611E-2,-3.58018E-1,-2.6119202E-1,-5.888873E-1,-1.4326115E-1,-1.695986E-1,-2.2800158E-1,-6.5227434E-2,2.720033E-1,-1.3837622E-1,5.515011E-1,7.1646166E-1,2.254968E-2,-4.171522E-2,3.0914089E-3,5.3214252E-2,8.603419E-3,1.5681926E-3,2.006556E-2,-8.616315E-3,1.8632593E-2,5.1143825E-2,2.8424406E-2,-2.4671337E-2,2.107296E-2,4.271814E-2,8.6650765E-4,1.6766313E-2,-7.549041E-3,2.5121406E-2,-7.401517E-3,3.9388534E-2,5.7569332E-3,3.738666E-2,-1.9836843E-3,5.488847E-2,2.30835E-2,3.148088E-2,1.9541234E-2,1.8723063E-2,3.4759622E-2,1.0852896E-2,3.5425022E-2,-4.8717365E-2,-1.7715981E-2,-8.913666E-3,-1.3321581E-2,-4.1389298E-2,-2.124631E-3,-1.115037E-2,-6.25246E-3,-1.0735017E-2,-5.024643E-3,-1.3317132E-2,-8.952777E-3,1.208615E-2,-4.5471317E-3,9.600716E-3,3.913835E-2,-5.902874E-3,-4.0940333E-2,4.8950516E-2,2.3853732E-2,3.245894E-2,5.022983E-2,3.3417646E-2,4.991418E-4],"categories":[],"categories_nodes":[],"categories_segments":[],"categories_sizes":[],"default_left":[0,0,0,0,0,0,0,0,0,0,0,0,1,0,0,0,0,0,0,0,0,0,0,0,0,0,0,0,0,0,0,0,0,0,0,0,0,0,0,0,0,1,0,0,0,0,0,0,0,0,0,0,0,0,0,0,0,0,0,0,0,0,0,0,0,0,0,0,0,0,0,0,0,0,0,0,0,0,0,0,0,0,0,0,0,0,0,0,0,0,0,0,0,0,0,0,0,0,0,0,0,0,0,0,0,0,0,0,0,0,0,0,0],"id":12,"left_children":[1,3,5,7,9,11,13,15,17,19,21,23,25,27,29,-1,31,33,35,37,39,41,43,45,-1,47,49,51,53,55,57,59,61,63,65,67,69,71,73,75,77,79,81,83,85,87,-1,89,91,93,95,97,99,101,103,105,107,109,111,-1,-1,-1,-1,-1,-1,-1,-1,-1,-1,-1,-1,-1,-1,-1,-1,-1,-1,-1,-1,-1,-1,-1,-1,-1,-1,-1,-1,-1,-1,-1,-1,-1,-1,-1,-1,-1,-1,-1,-1,-1,-1,-1,-1,-1,-1,-1,-1,-1,-1,-1,-1,-1,-1],"loss_changes":[1.445867E3,1.6752051E2,7.0181934E2,1.7215462E1,3.7766357E1,4.455597E1,2.6854498E2,1.465469E1,5.1685905E0,1.7198349E1,2.428064E1,2.7177248E0,3.073761E1,2.5185928E1,2.089856E2,0E0,7.9071865E0,5.8525734E0,1.1944614E1,6.71529E0,2.893608E0,1.409198E1,1.1144104E1,6.6256576E0,0E0,1.671051E1,3.8735466E0,3.4976044E0,7.878966E0,1.0023007E2,2.0433034E2,8.455029E0,7.8525467E0,5.0133476E0,6.720005E0,3.0393867E0,1.5464798E1,9.705792E0,8.1633E0,1.375299E0,2.9254532E0,6.8680496E0,1.3226013E1,1.4009186E1,8.827881E0,3.488081E0,0E0,4.620697E0,4.321594E0,2.5495887E0,3.0035667E0,4.6722717E0,6.2272644E0,8.186804E0,2.8841505E0,3.4579158E0,3.695529E1,7.7239227E0,1.9311862E2,0E0,0E0,0E0,0E0,0E0,0E0,0E0,0E0,0E0,0E0,0E0,0E0,0E0,0E0,0E0,0E0,0E0,0E0,0E0,0E0,0E0,0E0,0E0,0E0,0E0,0E0,0E0,0E0,0E0,0E0,0E0,0E0,0E0,0E0,0E0,0E0,0E0,0E0,0E0,0E0,0E0,0E0,0E0,0E0,0E0,0E0,0E0,0E0,0E0,0E0,0E0,0E0,0E0,0E0],"parents":[2147483647,0,0,1,1,2,2,3,3,4,4,5,5,6,6,7,7,8,8,9,9,10,10,11,11,12,12,13,13,14,14,16,16,17,17,18,18,19,19,20,20,21,21,22,22,23,23,25,25,26,26,27,27,28,28,29,29,30,30,31,31,32,32,33,33,34,34,35,35,36,36,37,37,38,38,39,39,40,40,41,41,42,42,43,43,44,44,45,45,47,47,48,48,49,49,50,50,51,51,52,52,53,53,54,54,55,55,56,56,57,57,58,58],"right_children":[2,4,6,8,10,12,14,16,18,20,22,24,26,28,30,-1,32,34,36,38,40,42,44,46,-1,48,50,52,54,56,58,60,62,64,66,68,70,72,74,76,78,80,82,84,86,88,-1,90,92,94,96,98,100,102,104,106,108,110,112,-1,-1,-1,-1,-1,-1,-1,-1,-1,-1,-1,-1,-1,-1,-1,-1,-1,-1,-1,-1,-1,-1,-1,-1,-1,-1,-1,-1,-1,-1,-1,-1,-1,-1,-1,-1,-1,-1,-1,-1,-1,-1,-1,-1,-1,-1,-1,-1,-1,-1,-1,-1,-1,-1],"split_conditions":[6.00001E0,2.00001E0,2.00001E0,4E0,2.00001E0,2.00001E0,2.00001E0,-1E0,2.777438E1,2.9090673E1,3E0,3.0700216E1,4E0,4E0,5.4845575E-2,5.796957E-2,2.3554295E1,9.03E1,9.71E1,2.180993E1,9.31E1,5.438936E-2,2.00001E0,2.9352922E1,3.8784154E-2,2.00001E0,2.00001E0,7.13E1,3.1819828E1,2.00001E0,2.00001E0,2.00001E0,6.13E1,2.00001E0,2.7258417E1,5.9798732E-2,2.8851965E1,1E0,9.62E1,9.09E1,6.764332E-2,2E0,2.00001E0,2.6829956E1,2.1220167E1,2.7901567E1,-2.7859611E-2,4.76E1,2.0558271E1,1.078E2,2.00001E0,6.7E1,2.6401987E1,2.14965E1,6.380738E-2,1.13E2,2.00001E0,4E0,2.00001E0,-4.171522E-2,3.0914089E-3,5.3214252E-2,8.603419E-3,1.5681926E-3,2.006556E-2,-8.616315E-3,1.8632593E-2,5.1143825E-2,2.8424406E-2,-2.4671337E-2,2.107296E-2,4.271814E-2,8.6650765E-4,1.6766313E-2,-7.549041E-3,2.5121406E-2,-7.401517E-3,3.9388534E-2,5.7569332E-3,3.738666E-2,-1.9836843E-3,5.488847E-2,2.30835E-2,3.148088E-2,1.9541234E-2,1.8723063E-2,3.4759622E-2,1.0852896E-2,3.5425022E-2,-4.8717365E-2,-1.7715981E-2,-8.913666E-3,-1.3321581E-2,-4.1389298E-2,-2.124631E-3,-1.115037E-2,-6.25246E-3,-1.0735017E-2,-5.024643E-3,-1.3317132E-2,-8.952777E-3,1.208615E-2,-4.5471317E-3,9.600716E-3,3.913835E-2,-5.902874E-3,-4.0940333E-2,4.8950516E-2,2.3853732E-2,3.245894E-2,5.022983E-2,3.3417646E-2,4.991418E-4],"split_indices":[49,2,2,47,4,26,4,49,46,46,48,46,47,47,52,0,46,45,45,46,45,52,3,46,0,19,14,45,46,3,40,26,45,19,46,52,46,49,45,45,52,47,40,46,46,46,0,45,46,45,19,45,46,46,52,45,24,47,39,0,0,0,0,0,0,0,0,0,0,0,0,0,0,0,0,0,0,0,0,0,0,0,0,0,0,0,0,0,0,0,0,0,0,0,0,0,0,0,0,0,0,0,0,0,0,0,0,0,0,0,0,0,0],"split_type":[0,0,0,0,0,0,0,0,0,0,0,0,0,0,0,0,0,0,0,0,0,0,0,0,0,0,0,0,0,0,0,0,0,0,0,0,0,0,0,0,0,0,0,0,0,0,0,0,0,0,0,0,0,0,0,0,0,0,0,0,0,0,0,0,0,0,0,0,0,0,0,0,0,0,0,0,0,0,0,0,0,0,0,0,0,0,0,0,0,0,0,0,0,0,0,0,0,0,0,0,0,0,0,0,0,0,0,0,0,0,0,0,0],"sum_hessian":[5.398932E4,7.8673438E3,4.6121977E4,2.4777153E3,5.3896284E3,1.4509818E4,3.1612156E4,1.9223097E3,5.554057E2,9.877192E2,4.401909E3,1.7178061E2,1.4338037E4,5.954376E3,2.5657781E4,1.2810715E1,1.909499E3,3.4063083E2,2.1477492E2,8.772319E2,1.1048731E2,2.1667195E3,2.2351897E3,1.632499E2,8.530722E0,1.2232945E4,2.105092E3,4.847703E3,1.1066727E3,1.4312417E3,2.422654E4,8.133384E2,1.0961606E3,2.4743814E2,9.319268E1,6.915099E1,1.4562392E2,1.736451E2,7.035868E2,1.1308107E1,9.91792E1,9.118189E1,2.0755376E3,1.0166082E3,1.2185814E3,1.5386185E2,9.3880415E0,2.1775981E3,1.0055347E4,1.8801613E1,2.0862905E3,1.5049872E3,3.342716E3,1.0333999E3,7.3272865E1,2.561035E2,1.1751382E3,4.310571E2,2.3795482E4,9.671398E0,8.03667E2,8.996193E0,1.0871644E3,4.4887157E1,2.0255098E2,5.7134365E1,3.6058315E1,3.2624474E1,3.652652E1,2.0791534E1,1.2483238E2,1.4175806E1,1.5946928E2,6.677377E2,3.5849075E1,5.548222E0,5.759886E0,9.182672E1,7.352483E0,1.1859853E1,7.932204E1,3.278775E1,2.0427499E3,5.731322E2,4.43476E2,9.705359E1,1.1215278E3,1.3837346E2,1.5488386E1,1.14236355E1,2.1661746E3,5.997102E2,9.455637E3,1.2723537E1,6.0780764E0,3.8578305E2,1.7005073E3,9.0937683E2,5.956103E2,1.8719299E3,1.470786E3,7.923295E1,9.5416693E2,6.4541214E1,8.731647E0,2.4981706E2,6.2864337E0,1.7244601E2,1.00269214E3,3.520924E2,7.89647E1,4.5320758E2,2.3342275E4],"tree_param":{"num_deleted":"0","num_feature":"55","num_nodes":"113","size_leaf_vector":"1"}},{"base_weights":[-2.4577633E-3,3.720852E-1,-6.706054E-2,1.61916E-1,4.6791473E-1,-2.3455454E-1,9.263318E-3,1.0330837E-1,2.8317735E-1,4.029298E-1,5.530523E-1,-2.4090506E-1,2.805037E-1,-1.6431221E-1,4.9428683E-2,1.4525455E-1,-1.2760364E-1,3.5598668E-1,